svm_type c_svc
kernel_type polynomial
degree 3
gamma 0.001
coef0 0
nr_class 2
total_sv 934
rho 0.999966
label 1 -1
nr_sv 386 548
SV
2.443510310458815e-10 1:255 2:255 3:255 4:229 5:255 6:255 8:255 9:255 10:42 11:234 12:255 13:171 14:204 15:241 16:250 17:190 18:230 20:110 21:106 22:64 23:114 24:18 25:255 26:80 27:183 28:134 29:110 30:65 31:192 32:104 33:154 34:73 35:228 36:61 37:123 38:100 39:169 40:78 41:86 42:233 43:174 44:71 45:226 46:178 47:229 48:60 49:169 50:61 51:104 52:149 53:109 54:133 55:171 56:65 57:182 58:217 60:168 61:254 62:242 63:255 64:255 65:255 
4.973751673994963e-09 1:255 2:3 3:255 4:255 5:196 6:255 7:255 8:255 9:255 10:255 11:255 12:255 13:255 14:255 15:255 16:254 17:255 18:255 19:141 20:255 21:255 22:107 23:255 24:255 25:121 26:99 27:129 28:120 29:193 30:70 31:129 32:108 33:255 34:255 35:255 36:255 37:255 38:255 39:255 40:255 41:255 42:108 43:255 44:255 45:129 46:255 47:255 48:73 49:255 50:255 51:195 52:255 53:255 54:57 55:255 56:255 57:125 58:255 59:255 60:181 61:255 62:255 63:255 64:254 65:255 
3.854870543820079e-08 1:255 2:255 3:255 4:255 5:255 6:255 7:253 8:222 9:255 10:149 11:175 12:255 13:183 14:173 15:255 16:197 17:174 18:255 19:177 20:175 21:180 22:236 23:175 24:216 25:228 26:179 27:182 28:224 29:248 30:227 31:174 32:236 33:175 34:216 35:180 36:255 37:255 38:255 39:255 40:255 41:255 42:236 43:175 44:217 45:174 46:173 47:151 48:235 49:183 50:221 51:241 52:246 53:255 54:255 55:255 56:255 57:255 58:254 59:255 60:255 61:250 62:255 63:254 64:249 65:152 
3.046283267518408e-08 1:250 2:212 3:255 4:169 5:174 6:255 7:238 8:192 9:255 10:254 11:248 12:253 13:254 14:210 15:199 16:160 17:185 18:210 19:201 20:187 21:177 22:196 23:187 24:203 25:249 26:171 27:233 28:175 29:235 30:190 31:148 32:199 33:187 34:204 35:156 36:159 37:248 38:196 39:208 40:193 41:207 42:198 43:187 44:203 45:211 46:187 47:178 48:191 49:187 50:196 51:201 52:183 53:170 54:198 55:203 56:225 57:254 58:253 59:249 60:255 61:255 62:255 63:224 64:255 65:255 
1e-07 1:87 2:88 3:88 4:90 5:91 6:121 7:89 8:106 9:101 10:89 11:127 12:88 13:90 14:125 15:98 16:97 17:112 18:105 19:157 20:113 21:100 22:181 23:115 24:96 25:90 26:90 27:92 28:90 29:93 30:91 31:103 32:112 33:93 34:90 35:95 36:99 37:97 38:95 39:95 40:92 41:93 42:87 43:90 44:96 45:90 46:120 47:152 48:87 49:118 50:148 51:89 52:87 53:125 54:86 55:124 56:150 57:93 58:122 59:86 60:89 61:101 62:92 63:89 64:87 65:136 
1e-07 1:90 2:86 3:157 4:111 5:141 6:84 7:92 8:174 9:90 10:109 11:192 12:89 13:109 14:189 15:89 16:106 17:185 18:90 19:92 20:166 21:125 22:94 23:139 24:189 25:93 26:92 27:93 28:93 29:92 30:92 31:90 32:88 33:97 34:103 35:94 36:85 37:85 38:85 39:84 40:76 41:154 42:144 43:100 44:83 45:133 46:91 47:85 48:122 49:106 50:85 51:106 52:82 53:83 54:114 55:107 56:89 57:91 58:111 59:120 60:88 61:80 62:82 63:146 64:104 65:155 
1e-07 1:85 2:89 3:123 4:84 5:98 6:127 7:87 8:129 9:139 10:88 11:126 12:109 13:118 14:103 15:105 16:169 17:88 18:113 19:103 20:88 21:105 22:84 23:85 24:88 25:81 26:81 27:82 28:80 29:98 30:136 31:105 32:85 33:83 34:85 35:87 36:87 37:88 38:87 39:88 40:89 41:88 42:79 43:82 44:82 45:98 46:102 47:78 48:127 49:97 50:81 51:145 52:89 53:83 54:117 55:113 56:81 57:90 58:101 59:80 60:81 61:90 62:79 63:76 64:102 65:76 
1e-07 1:121 2:100 3:155 4:101 5:123 6:79 7:89 8:92 9:105 10:131 11:87 12:179 13:128 14:87 15:91 16:89 17:85 18:83 19:101 20:83 21:82 22:85 23:85 24:85 25:88 26:88 27:88 28:86 29:92 30:101 31:97 32:85 33:84 34:84 35:84 36:84 37:83 38:83 39:98 40:140 41:178 42:99 43:91 44:85 45:136 46:136 47:131 48:146 49:126 50:113 51:123 52:125 53:84 54:107 55:94 56:88 57:97 58:130 59:101 60:107 61:131 62:69 63:75 64:93 65:151 
6.791566700664384e-08 1:4 2:4 3:4 4:4 5:4 6:2 7:10 8:7 9:31 10:92 11:27 12:221 13:96 14:30 15:186 16:74 17:33 18:105 20:42 21:31 22:129 23:53 24:143 25:4 27:62 28:108 29:95 30:74 32:128 33:58 34:134 35:4 36:3 38:104 39:72 41:4 42:128 43:61 44:134 46:58 47:5 48:74 49:51 50:3 51:95 52:40 54:108 55:32 56:105 57:62 58:29 59:73 61:32 63:4 64:38 65:4 
3.310945878803935e-08 1:4 2:4 3:4 5:3 7:46 8:8 9:31 10:59 11:78 12:131 14:162 15:133 16:8 17:202 18:21 19:176 20:184 23:146 24:69 25:51 26:119 28:97 29:105 30:80 31:106 33:113 34:90 36:21 37:140 39:70 40:107 43:92 44:105 45:68 46:77 48:125 49:63 50:21 51:136 52:54 53:140 54:29 55:48 58:45 59:70 60:119 61:44 62:107 63:51 64:45 
1.245547598143915e-08 1:4 2:39 3:4 5:38 7:62 8:36 9:73 10:108 11:33 12:104 13:83 14:28 16:102 17:20 18:143 19:4 20:11 21:27 22:155 23:14 24:34 26:54 27:185 28:67 29:24 30:192 31:129 32:150 33:19 34:153 35:150 36:132 38:105 39:73 41:4 42:105 43:15 44:228 45:250 46:1 47:238 48:37 50:1 51:4 52:4 53:4 54:4 55:4 56:4 57:3 58:4 59:4 60:4 61:4 62:4 63:4 64:4 65:4 
2.935712006760704e-08 1:51 2:48 4:119 5:52 6:107 8:62 9:70 10:59 11:73 13:109 14:87 15:140 16:92 17:107 18:21 19:134 20:137 22:2 23:169 24:41 25:49 26:152 27:125 28:210 29:9 30:22 31:204 32:110 33:197 34:15 36:21 37:140 39:70 40:105 41:11 42:255 43:167 45:103 46:86 47:2 48:2 49:13 50:8 51:4 52:2 53:1 54:4 55:3 56:4 57:3 58:3 59:4 60:4 61:4 62:4 63:4 64:4 65:4 
4.668847730718636e-08 1:1 2:1 3:1 4:1 5:1 6:1 7:1 8:1 9:1 10:1 11:1 12:1 13:1 14:1 15:1 16:1 17:1 18:1 19:3 20:1 21:1 22:1 23:1 24:1 25:1 26:1 27:1 28:17 29:100 30:110 31:26 33:1 34:1 36:12 37:100 38:123 39:42 41:1 42:14 45:255 47:63 48:40 49:11 50:226 52:54 54:24 55:105 56:2 57:178 58:143 60:116 61:169 62:85 64:182 65:212 
1e-07 1:1 2:1 3:1 4:1 5:1 6:1 7:1 8:1 9:2 10:1 11:1 13:1 14:1 16:1 17:1 18:1 19:3 20:2 22:2 23:2 24:2 25:1 26:1 27:9 28:84 29:114 30:42 32:1 34:6 35:86 36:117 37:36 39:30 40:26 44:82 45:148 46:3 47:235 48:159 49:29 50:32 52:49 53:3 55:60 57:11 58:50 59:152 60:181 61:27 62:129 63:92 64:11 
3.053135968909484e-09 1:104 2:17 4:165 5:18 6:129 7:1 8:9 9:146 12:62 13:1 15:201 16:31 18:17 19:224 20:58 21:22 23:100 24:255 25:109 26:163 27:79 28:241 29:255 30:191 31:23 33:54 34:218 35:255 36:235 37:70 39:130 40:113 42:2 44:46 45:1 46:1 48:1 49:1 50:1 51:1 52:1 53:1 54:1 55:1 56:1 58:1 59:3 60:16 61:1 62:2 63:2 64:1 65:4 
1.356950240683296e-08 1:252 2:252 3:250 4:252 5:252 6:249 7:252 8:252 9:250 10:253 11:251 12:250 13:230 14:251 15:249 16:255 17:254 18:253 19:251 20:240 21:236 22:187 23:86 24:125 25:254 26:149 27:110 28:131 29:111 30:118 31:203 32:169 33:148 34:126 35:117 36:66 37:120 38:156 39:100 40:120 41:232 42:161 43:172 44:149 45:183 46:68 47:54 48:205 49:129 50:160 51:158 52:99 53:219 54:180 55:117 56:180 57:251 58:251 59:251 60:253 61:252 62:252 63:253 64:251 65:252 
8.729370331173662e-09 1:253 2:251 3:252 4:253 5:245 6:196 7:252 8:253 9:232 10:253 11:236 12:222 13:255 14:205 15:119 16:218 17:230 18:146 19:128 20:246 21:105 22:182 23:255 24:113 25:253 26:253 27:252 28:252 29:255 30:217 31:128 32:182 33:255 34:107 35:132 36:152 37:121 38:133 39:139 40:196 41:187 42:180 43:255 44:135 45:204 46:255 47:222 48:254 49:228 50:255 51:253 52:239 53:252 54:253 55:255 56:253 57:253 58:255 59:253 60:252 61:255 62:253 63:253 64:255 65:253 
3.918546605442262e-09 1:252 2:249 3:253 4:253 5:189 6:254 7:251 8:175 9:254 10:203 11:176 12:255 13:94 14:138 15:254 16:170 17:106 18:255 19:107 20:98 21:157 22:207 23:92 24:79 25:137 26:235 27:235 28:159 29:156 30:132 31:99 32:149 33:102 34:199 35:209 36:228 37:255 38:254 39:254 40:252 41:254 42:29 43:136 44:59 45:215 46:223 47:208 48:255 49:254 50:255 51:253 52:254 53:254 54:253 55:253 56:252 57:253 58:253 59:254 60:253 61:253 62:253 63:253 64:254 65:253 
1e-07 10:2 13:58 18:78 19:41 21:42 22:65 25:45 26:75 27:75 28:79 29:61 31:47 32:50 35:37 36:62 41:94 42:6 47:37 48:11 49:7 50:62 51:146 52:87 53:74 54:27 55:123 56:7 57:64 58:118 59:37 60:57 61:89 62:43 64:76 65:91 
1e-07 10:10 13:139 16:4 25:58 26:67 27:54 28:69 29:11 48:8 49:2 51:46 52:101 53:111 54:193 55:171 56:102 57:60 58:114 59:79 60:75 61:36 62:22 63:52 64:33 
1e-07 2:69 3:91 4:56 5:65 6:28 7:64 8:64 9:72 10:31 11:64 13:59 14:64 15:55 16:64 17:63 18:99 19:65 20:63 21:67 22:71 23:63 24:60 26:61 27:66 28:31 29:59 30:65 31:65 32:70 33:62 34:59 35:68 36:63 37:99 39:54 40:59 41:113 42:112 43:97 44:88 45:113 46:101 47:115 50:1 
1e-07 1:52 2:34 4:74 5:41 6:23 7:60 8:45 9:82 10:73 11:46 12:76 13:94 14:45 15:44 16:33 17:44 18:60 20:39 22:83 23:31 24:101 25:56 26:72 27:59 28:70 29:73 30:83 31:32 32:86 33:19 34:118 35:19 36:81 37:41 38:75 39:82 40:34 41:78 42:110 43:10 44:139 45:107 46:34 47:181 48:62 50:3 
6.339816894264788e-09 1:252 2:252 3:252 4:253 5:253 6:253 7:254 8:253 9:253 10:255 11:253 12:253 13:169 14:252 15:252 16:206 17:253 18:253 19:255 20:253 21:252 22:240 23:255 24:255 25:255 26:129 27:29 28:242 29:78 30:82 31:114 32:36 33:188 34:191 35:186 36:161 37:214 38:255 39:229 40:237 41:255 43:73 44:102 45:44 46:39 47:2 48:171 49:32 50:105 51:97 52:35 53:28 54:238 55:41 56:134 57:45 58:35 59:84 60:94 61:36 62:77 63:255 64:35 65:88 
7.366945938079867e-09 1:252 2:252 3:253 4:253 5:253 6:253 7:253 8:253 9:253 10:253 11:253 12:253 13:252 14:252 15:252 16:253 17:253 18:253 19:253 20:252 21:252 22:253 23:252 24:253 25:255 26:255 27:255 28:253 29:254 30:255 31:253 32:253 33:253 34:254 35:255 36:61 37:107 38:255 39:253 40:253 41:253 42:254 43:255 44:255 45:185 46:135 47:189 48:2 49:4 50:61 51:46 52:9 53:111 54:92 55:85 56:28 57:18 58:112 59:232 60:182 61:115 62:255 63:10 64:120 65:222 
3.299993799934718e-09 1:253 2:210 3:108 4:252 5:255 6:234 7:252 8:252 9:254 10:253 11:254 12:253 13:255 14:201 15:253 16:220 17:172 18:253 19:207 20:179 21:228 22:141 23:171 24:161 25:252 26:252 27:252 28:253 29:255 30:188 31:154 32:200 33:160 34:176 35:177 36:198 37:190 38:156 39:170 40:199 41:235 42:211 43:160 44:150 45:160 46:159 47:227 48:197 49:177 50:165 51:253 52:241 53:178 54:253 55:254 56:254 57:252 58:252 59:254 60:253 61:253 62:253 63:253 64:253 65:253 
1.925805089227254e-09 1:51 2:119 3:219 4:103 5:126 6:48 7:254 8:231 9:14 10:253 11:254 12:249 13:253 14:253 15:253 16:253 17:254 18:252 19:206 20:221 21:241 22:176 23:210 24:154 25:143 26:171 27:139 28:192 29:159 30:221 31:196 32:186 33:193 34:165 35:236 36:228 37:254 38:252 39:252 40:252 41:253 42:160 43:165 44:152 45:190 46:194 47:176 48:255 49:194 50:145 51:198 52:194 53:239 54:217 55:194 56:255 57:255 58:240 59:252 60:252 61:254 62:252 63:253 64:253 65:253 
1.516896932550339e-09 1:251 2:251 3:252 4:252 5:252 6:253 7:252 8:252 9:252 10:251 11:251 12:247 13:252 14:254 15:234 16:252 17:255 18:255 19:250 20:255 21:92 22:251 23:255 24:185 25:252 26:255 27:122 28:189 29:221 30:124 31:255 32:198 33:184 34:237 35:76 36:230 37:96 38:224 39:253 40:254 41:254 42:140 43:114 44:255 45:255 46:118 47:151 48:128 49:137 50:12 51:124 52:143 53:227 54:123 55:51 56:236 57:139 58:140 59:132 60:247 61:204 62:255 63:251 64:233 65:219 
1.148193596242157e-08 1:252 2:252 3:214 4:252 5:255 6:253 7:252 8:255 9:255 10:251 11:255 12:132 13:252 14:247 15:235 16:253 17:245 18:255 19:244 20:253 21:252 22:180 23:196 24:216 25:252 26:252 27:252 28:255 29:236 30:158 31:131 32:197 33:126 34:140 35:148 36:145 37:218 38:161 39:189 40:189 41:185 42:184 43:118 44:133 45:151 46:110 47:124 48:227 49:165 50:159 51:252 52:249 53:220 54:251 55:250 56:253 57:252 58:252 59:252 60:252 61:252 62:253 63:252 64:251 65:252 
2.185461418351386e-08 1:197 2:182 3:255 4:251 5:192 6:117 7:253 8:250 9:232 10:252 11:252 12:249 13:254 14:254 15:253 16:254 17:254 18:253 19:252 20:252 21:252 22:252 23:253 24:253 25:230 26:238 27:248 28:248 29:250 30:254 31:254 32:252 33:254 34:254 35:253 36:252 37:252 38:252 39:253 40:253 41:253 42:242 43:230 44:235 45:148 46:134 47:160 48:155 49:131 50:154 51:210 52:116 53:164 54:163 55:142 56:213 57:255 58:216 59:255 60:252 61:255 62:253 63:252 64:252 65:252 
1e-07 1:253 2:253 3:253 4:252 5:252 6:252 7:253 8:253 9:253 10:253 11:252 12:252 13:253 14:250 15:248 16:242 17:239 18:241 19:242 20:243 21:241 22:239 23:241 24:244 25:252 26:245 27:250 28:248 29:243 30:248 31:254 32:250 33:242 34:245 35:250 36:247 37:252 38:243 39:242 40:241 41:241 42:252 43:242 44:243 45:252 46:242 47:240 48:246 49:243 50:249 51:243 52:243 53:245 54:249 55:244 56:241 57:253 58:243 59:241 60:252 61:241 62:246 63:252 64:251 65:253 
1e-07 1:253 2:253 3:253 4:252 5:252 6:252 7:253 8:253 9:253 10:252 11:252 12:243 13:239 14:245 15:241 16:246 17:242 18:251 19:251 20:242 21:252 22:248 23:241 24:245 25:243 26:247 27:241 28:243 29:252 30:253 31:253 32:247 33:241 34:246 35:253 36:253 37:251 38:242 39:243 40:251 41:253 42:248 43:242 44:244 45:253 46:242 47:250 48:252 49:241 50:246 51:240 52:244 53:240 54:239 55:251 56:251 57:253 58:253 59:255 60:253 61:255 62:249 63:253 64:181 65:253 
2.61660645798939e-09 1:112 2:184 3:253 4:34 5:255 6:253 7:255 8:253 9:253 10:236 11:252 12:253 13:254 14:253 15:254 16:254 17:255 18:234 19:191 20:255 21:141 22:202 23:163 24:222 25:95 26:149 27:195 28:156 29:187 30:255 31:107 32:123 33:142 34:151 35:177 36:125 37:116 38:179 39:189 40:255 41:252 42:137 43:84 44:106 45:154 46:80 47:229 48:251 49:254 50:173 51:253 52:253 53:251 54:253 55:253 56:253 57:252 58:253 59:252 60:253 61:253 62:253 63:252 64:253 65:252 
6.640539981933464e-09 1:2 3:80 4:2 5:2 7:2 8:1 9:52 10:2 12:254 13:2 15:244 16:2 17:4 18:255 19:2 21:251 22:2 23:1 25:2 26:2 27:2 28:2 30:37 31:97 32:6 33:1 34:2 38:1 39:2 40:2 41:2 42:6 43:1 44:2 45:221 47:1 48:163 50:1 54:130 55:58 56:73 57:200 58:153 59:255 60:132 61:216 62:34 63:10 64:250 65:74 
4.496009630028451e-08 1:255 2:58 3:2 4:90 5:61 6:2 7:187 8:65 9:22 10:118 11:67 12:180 13:104 14:71 15:13 16:255 17:75 18:193 19:177 20:79 21:117 22:175 23:48 25:224 26:146 27:14 28:47 29:2 30:16 31:7 32:5 33:1 34:2 35:1 36:2 37:2 38:1 39:1 40:2 41:2 42:1 43:2 44:2 45:2 46:2 47:2 48:2 49:2 50:2 51:2 52:2 53:2 54:2 55:2 56:2 58:2 59:2 60:33 61:2 62:2 63:49 64:2 65:2 
3.206094319067358e-08 1:62 2:62 3:59 4:59 5:62 6:60 7:75 8:62 9:61 10:142 11:62 12:62 13:56 14:62 15:62 16:62 17:62 18:62 19:61 20:63 21:61 22:62 23:63 24:62 25:60 26:204 27:197 28:75 29:59 30:59 31:59 32:61 33:62 34:63 35:61 36:59 37:60 38:60 39:52 40:137 41:245 42:59 43:63 44:65 45:61 46:63 47:65 48:67 49:66 50:63 51:163 52:111 53:155 54:178 55:185 56:255 57:254 58:220 59:199 60:253 61:240 62:148 63:137 64:245 65:255 
1.358975518117611e-08 1:62 2:62 3:62 4:62 5:62 6:62 7:62 8:62 9:62 10:62 11:62 12:64 13:62 14:62 15:186 16:61 17:62 18:155 19:63 20:63 21:53 22:63 23:62 24:62 25:65 26:60 27:62 28:59 29:59 30:59 31:61 32:62 33:60 34:60 35:53 36:160 37:221 38:63 39:59 40:62 41:63 42:61 43:61 44:61 45:60 46:63 47:59 48:77 49:71 50:160 51:197 52:164 53:220 54:138 55:238 56:96 57:122 58:254 59:245 60:254 61:255 62:86 63:222 64:243 65:60 
4.37249941149406e-09 1:98 2:192 3:61 4:217 5:171 6:55 7:192 8:163 9:153 10:237 11:162 12:248 13:109 14:162 15:252 16:158 17:163 18:187 19:215 20:163 21:238 22:216 23:166 24:107 25:75 26:225 27:184 28:236 29:127 30:178 31:209 32:211 33:180 34:128 35:235 36:189 37:212 38:199 39:206 40:60 41:59 42:192 43:230 44:208 45:170 46:255 47:215 48:255 49:255 50:161 51:255 52:247 53:216 54:99 55:199 56:82 57:59 58:90 59:89 60:62 61:62 62:61 63:58 64:59 65:63 
1.682690573945362e-08 1:175 2:237 3:238 4:191 5:239 6:240 7:206 8:240 9:241 10:218 11:242 12:242 13:196 14:243 15:243 16:205 17:244 18:245 19:244 20:245 21:246 22:244 23:246 24:247 25:143 26:60 27:64 28:33 29:42 30:209 31:245 32:245 33:247 34:248 35:248 36:248 37:248 38:248 39:247 40:248 41:247 42:245 43:247 44:249 45:246 46:249 47:249 48:230 49:249 50:250 51:240 52:250 53:251 54:184 55:250 56:251 57:125 58:251 59:252 60:206 61:253 62:253 63:185 64:255 65:203 
1e-07 1:238 2:236 3:154 4:240 5:237 6:173 7:241 8:238 9:189 10:242 11:239 12:204 13:243 14:240 15:217 16:245 17:242 18:227 19:246 20:243 21:234 22:246 23:244 24:240 25:248 26:248 27:248 28:248 29:247 30:248 31:248 32:247 33:245 34:241 35:236 36:229 37:220 38:209 39:195 40:178 41:160 42:247 43:245 44:242 45:249 46:246 47:237 48:250 49:246 50:231 51:251 52:247 53:223 54:250 55:248 56:212 57:254 58:249 59:198 60:239 61:249 62:171 63:147 64:249 65:163 
2.310068210888069e-08 1:185 2:255 3:189 4:208 5:230 6:234 7:124 8:82 9:255 10:186 11:69 12:255 13:131 14:146 15:255 16:190 17:190 18:173 19:129 20:200 21:85 22:126 23:200 24:168 25:186 26:208 27:153 28:184 29:153 30:199 31:117 32:124 33:197 34:165 35:110 36:137 37:255 38:255 39:198 40:180 41:162 42:121 43:197 44:164 45:117 46:193 47:132 48:204 49:195 50:156 51:187 52:217 53:241 54:182 55:243 56:254 57:193 58:254 59:255 60:202 61:253 62:254 63:186 64:253 65:254 
1.867616568400462e-08 1:133 2:251 3:164 4:189 5:247 6:100 7:85 8:140 9:148 10:82 11:83 12:63 13:154 14:108 15:120 16:102 17:154 18:100 19:48 20:178 21:28 22:153 23:176 24:130 25:127 26:164 27:175 28:181 29:158 30:138 31:158 32:143 33:180 34:130 35:167 36:125 37:154 38:165 39:134 40:113 41:167 42:148 43:185 44:131 45:84 46:189 47:46 48:125 49:192 50:185 51:235 52:227 53:178 54:229 55:245 56:214 57:254 58:252 59:199 60:254 61:251 62:182 63:254 64:251 65:164 
1e-07 1:87 2:86 3:86 4:88 5:90 6:88 7:89 8:92 9:104 10:89 11:90 12:161 13:91 14:117 15:137 16:142 17:129 18:92 19:155 20:88 21:87 22:104 23:87 24:89 25:108 26:89 27:85 28:88 29:89 30:136 31:154 32:104 33:92 34:102 35:143 36:184 37:165 38:143 39:135 40:118 41:107 42:104 43:89 44:112 45:156 46:93 47:147 48:127 49:137 50:93 51:89 52:180 53:90 54:87 55:134 56:89 57:86 58:90 59:93 60:87 61:92 62:93 63:86 64:90 65:91 
1e-07 1:87 2:120 3:93 4:100 5:99 6:93 7:163 8:86 9:92 10:208 11:110 12:88 13:168 14:107 15:154 16:121 17:163 18:153 19:173 20:153 21:104 22:122 23:95 24:89 25:92 26:91 27:111 28:158 29:155 30:118 31:123 32:149 33:116 34:94 35:94 36:94 37:93 38:92 39:91 40:88 41:87 42:152 43:151 44:102 45:102 46:170 47:91 48:119 49:159 50:90 51:89 52:110 53:88 54:99 55:99 56:93 57:105 58:90 59:91 60:91 61:90 62:91 63:91 64:90 65:92 
1e-07 1:86 2:89 3:91 4:84 5:92 6:92 7:132 8:90 9:125 10:131 11:123 12:130 13:110 14:109 15:135 16:92 17:131 18:171 19:159 20:145 21:128 22:134 23:111 24:96 25:92 26:104 27:134 28:156 29:151 30:131 31:108 32:95 33:92 34:93 35:97 36:123 37:161 38:168 39:139 40:109 41:93 42:105 43:106 44:132 45:92 46:156 47:151 48:96 49:164 50:88 51:127 52:104 53:88 54:125 55:91 56:89 57:94 58:93 59:89 60:92 61:93 62:87 63:94 64:90 65:84 
1e-07 1:91 2:87 3:92 4:100 5:118 6:90 7:145 8:107 9:87 10:122 11:77 12:81 13:86 14:81 15:84 16:92 17:89 18:88 19:125 20:128 21:94 22:83 23:96 24:129 25:87 26:111 27:168 28:139 29:84 30:82 31:81 32:79 33:97 34:146 35:134 36:91 37:77 38:84 39:98 40:119 41:146 42:118 43:149 44:132 45:124 46:116 47:115 48:88 49:79 50:84 51:169 52:81 53:88 54:127 55:85 56:89 57:84 58:85 59:91 60:87 61:84 62:91 63:84 64:84 65:90 
1.090094729460363e-09 1:255 2:255 3:255 4:255 5:255 6:255 7:226 8:255 9:149 10:69 11:247 12:101 13:14 14:171 15:221 16:18 17:70 18:255 19:42 20:11 21:75 25:2 26:28 28:81 29:140 30:103 31:76 35:40 36:235 37:44 38:2 39:41 41:155 45:72 47:26 48:233 49:5 50:180 51:125 52:85 53:9 54:31 55:160 56:113 58:205 61:236 62:23 64:251 65:255 
8.349480781989067e-10 2:251 3:255 5:251 6:237 7:126 8:251 9:255 10:255 11:251 12:192 13:89 14:251 15:15 16:41 17:252 18:180 19:91 20:252 22:29 23:252 24:164 26:70 27:87 28:30 29:62 30:50 31:98 32:28 33:253 34:158 36:212 37:120 40:7 41:206 42:28 43:253 44:151 45:104 46:253 48:57 49:246 50:246 51:80 52:253 53:255 54:64 55:255 56:255 58:255 59:255 61:255 62:255 63:94 64:255 65:255 
1.300064945038728e-10 1:255 2:255 3:255 4:255 5:255 6:255 7:221 8:255 9:255 11:255 12:212 14:255 15:252 16:118 17:255 18:255 19:242 20:206 21:27 23:111 24:15 25:248 26:47 30:39 31:145 33:22 35:24 36:217 37:42 41:172 45:132 47:20 48:1 50:168 51:129 54:255 55:9 56:216 57:125 58:44 59:9 61:71 63:202 64:88 65:172 
1.009244365192467e-09 1:206 2:100 3:255 5:107 6:255 7:119 8:115 9:255 10:255 11:118 12:233 13:139 14:121 15:9 17:122 18:189 19:147 20:122 21:255 23:121 24:255 25:255 26:77 30:37 31:183 33:119 34:255 35:255 36:241 37:37 41:150 43:117 44:255 45:207 46:115 47:255 48:150 49:109 50:255 51:7 52:104 53:252 54:96 55:171 56:242 57:255 58:255 59:255 60:255 61:255 62:255 63:255 64:255 65:255 
9.956702880451668e-10 1:255 2:255 3:255 4:255 5:255 6:255 7:255 8:255 9:255 10:255 11:255 12:255 13:255 14:255 15:255 16:255 17:255 18:201 19:255 20:255 21:69 22:255 23:248 24:223 25:146 27:29 28:214 29:26 30:9 31:211 32:190 33:148 34:110 35:79 36:211 37:206 38:27 39:102 42:49 43:40 44:98 45:123 47:82 50:41 51:45 53:230 54:51 55:40 56:255 57:17 58:127 59:38 61:178 62:193 63:150 64:200 65:255 
1.545510984869843e-09 1:150 2:206 3:255 5:210 6:193 7:221 8:214 9:25 10:196 11:217 12:38 13:52 14:218 15:230 16:164 17:218 18:212 19:44 20:218 21:86 22:43 23:218 24:255 25:145 26:97 27:255 28:212 29:10 31:51 32:44 33:217 34:255 35:91 36:114 37:78 38:65 39:109 42:43 43:216 44:255 45:52 46:215 47:105 48:60 49:212 51:255 52:214 53:145 54:255 55:250 56:160 57:255 58:255 59:255 60:255 61:255 62:255 63:255 64:255 65:255 
1e-07 1:22 2:7 4:21 5:2 7:22 10:21 13:20 16:8 19:1 27:2 28:2 29:2 30:1 39:1 59:72 62:142 64:4 65:81 
1e-07 18:1 22:1 31:1 32:3 33:2 35:1 36:1 37:20 38:76 39:118 40:37 42:4 43:6 44:2 45:32 46:91 47:74 48:37 49:145 50:114 51:17 52:120 53:140 54:109 55:131 56:85 57:154 58:120 59:73 60:81 61:117 62:24 63:155 64:113 
1e-07 2:15 3:78 4:3 5:6 6:210 7:95 8:7 9:93 10:95 12:18 13:127 15:46 16:42 18:107 19:149 21:86 22:178 23:20 24:15 26:51 27:173 28:136 29:151 30:64 31:90 32:122 33:74 35:42 36:33 37:6 38:1 40:11 41:9 42:31 43:50 45:78 46:2 47:2 48:25 49:3 51:3 54:42 59:1 
1e-07 1:175 2:99 4:121 5:128 7:108 8:116 10:79 11:81 13:11 14:49 17:12 19:1 20:1 21:2 22:1 23:1 24:2 25:76 26:20 27:13 29:1 30:1 
1.497325769451899e-08 17:1 19:47 22:126 25:28 26:126 27:44 28:31 29:117 30:25 31:148 32:161 33:51 34:40 35:21 36:6 37:9 38:14 39:77 40:144 41:196 42:167 43:77 44:83 45:84 46:82 47:76 48:26 49:100 51:77 52:124 53:213 54:146 55:137 56:171 57:107 58:130 59:73 60:92 61:128 62:112 63:7 64:178 65:101 
1.544994373214196e-08 20:1 24:1 25:43 26:1 27:4 30:2 31:2 32:11 33:64 34:90 35:5 36:17 37:4 38:2 42:81 43:248 44:186 46:255 47:52 48:88 49:170 50:95 51:244 52:96 53:155 54:180 55:95 56:121 57:187 58:102 59:131 60:60 61:100 62:3 63:19 64:115 65:4 
1e-07 1:26 2:156 3:94 4:73 5:121 6:88 7:115 8:116 9:201 10:12 11:98 12:139 13:2 14:85 15:147 17:76 18:20 20:53 22:27 23:43 25:1 26:1 32:19 33:37 36:1 37:2 41:1 42:8 43:16 45:1 46:1 48:1 51:1 54:1 55:1 56:1 57:1 58:1 59:1 60:1 61:1 62:1 63:1 64:1 65:1 
9.150959280819017e-08 2:113 3:6 4:60 5:99 6:155 7:96 8:91 9:231 10:69 11:62 12:68 13:129 14:45 15:160 16:41 17:51 18:75 20:43 21:121 23:14 24:35 26:20 27:11 29:72 30:33 32:1 34:27 35:107 36:11 37:116 38:51 39:175 40:254 41:91 42:1 44:15 47:66 48:9 51:2 52:1 53:1 54:1 55:1 56:2 57:1 58:1 59:2 60:2 61:1 62:1 64:1 65:1 
1e-07 1:90 2:102 3:91 4:82 5:100 6:97 7:84 8:100 9:98 10:92 11:100 12:98 13:114 14:98 15:98 16:135 17:98 18:99 19:96 20:97 21:99 22:95 23:96 24:99 25:84 26:88 27:96 28:95 29:115 30:142 31:96 32:97 33:98 34:99 35:99 36:99 37:95 38:92 39:91 40:90 41:97 42:98 43:99 44:99 45:98 46:98 47:99 48:151 49:98 50:95 51:112 52:97 53:91 54:101 55:97 56:90 57:100 58:99 59:89 60:129 61:133 62:89 63:91 64:155 65:87 
1e-07 1:91 2:88 3:96 4:87 5:89 6:95 7:87 8:90 9:93 10:87 11:90 12:96 13:86 14:92 15:136 16:86 17:104 18:125 19:88 20:141 21:98 22:140 23:122 24:89 25:111 26:157 27:143 28:116 29:89 30:91 31:134 32:124 33:91 34:89 35:89 36:139 37:122 38:91 39:93 40:95 41:95 42:95 43:90 44:88 45:106 46:89 47:93 48:126 49:85 50:136 51:140 52:81 53:112 54:118 55:85 56:86 57:97 58:91 59:85 60:154 61:126 62:87 63:99 64:117 65:88 
1e-07 1:90 2:131 3:86 4:91 5:101 6:88 7:126 8:91 9:90 10:138 11:93 12:91 13:111 14:97 15:92 16:147 17:96 18:93 19:166 20:95 21:92 22:92 23:94 24:91 25:93 26:93 27:91 28:92 29:145 30:180 31:109 32:92 33:92 34:90 35:88 36:88 37:92 38:92 39:89 40:87 41:86 42:93 43:91 44:88 45:91 46:91 47:86 48:91 49:88 50:85 51:92 52:88 53:88 54:92 55:88 56:88 57:92 58:90 59:89 60:93 61:91 62:88 63:93 64:96 65:88 
1e-07 1:94 2:86 3:105 4:121 5:87 6:142 7:98 8:115 9:88 10:125 11:116 12:88 13:113 14:84 15:84 16:92 17:87 18:86 19:90 20:89 21:87 22:109 23:92 24:88 25:87 26:89 27:90 28:92 29:92 30:90 31:94 32:126 33:93 34:88 35:87 36:86 37:85 38:86 39:87 40:88 41:89 42:129 43:97 44:87 45:90 46:108 47:86 48:90 49:154 50:82 51:92 52:169 53:85 54:91 55:134 56:88 57:88 58:148 59:88 60:89 61:156 62:87 63:89 64:119 65:87 
1e-07 1:79 2:81 3:86 4:78 5:79 6:90 7:79 8:86 9:107 10:79 11:112 12:125 13:95 14:139 15:128 16:97 17:132 18:127 19:96 20:144 21:121 22:117 23:162 24:130 25:71 26:73 27:73 28:83 29:133 30:120 31:108 32:109 33:152 34:108 35:82 36:85 37:85 38:85 39:85 40:83 41:107 42:82 43:139 44:103 45:79 46:120 47:81 48:75 49:86 50:83 51:73 52:77 53:84 54:72 55:76 56:85 57:72 58:76 59:99 60:73 61:75 62:100 63:72 64:78 65:118 
1e-07 1:87 2:93 3:140 4:89 5:92 6:87 7:117 8:92 9:90 10:91 11:94 12:90 13:123 14:93 15:91 16:88 17:91 18:91 19:90 20:91 21:91 22:89 23:91 24:91 25:135 26:131 27:109 28:111 29:137 30:112 31:89 32:91 33:93 34:93 35:93 36:93 37:93 38:93 39:93 40:88 41:138 42:99 43:96 44:92 45:112 46:103 47:89 48:90 49:88 50:88 51:90 52:86 53:87 54:86 55:86 56:89 57:101 58:89 59:89 60:121 61:90 62:82 63:119 64:90 65:135 
1e-07 1:71 2:78 3:95 4:72 5:78 6:88 7:73 8:74 9:111 10:74 11:73 12:98 13:73 14:75 15:89 16:73 17:74 18:80 19:76 20:81 21:78 22:82 23:96 24:97 25:72 26:74 27:76 28:77 29:78 30:79 31:78 32:79 33:81 34:84 35:83 36:83 37:86 38:86 39:95 40:118 41:140 42:80 43:83 44:82 45:83 46:83 47:102 48:80 49:99 50:91 51:80 52:96 53:83 54:77 55:83 56:81 57:76 58:82 59:82 60:76 61:80 62:83 63:75 64:78 65:84 
1e-07 1:88 2:90 3:137 4:86 5:90 6:82 7:109 8:120 9:85 10:97 11:94 12:88 13:94 14:92 15:89 16:92 17:91 18:87 19:91 20:90 21:88 22:105 23:106 24:107 25:131 26:140 27:91 28:84 29:85 30:85 31:85 32:87 33:88 34:87 35:87 36:87 37:88 38:89 39:89 40:84 41:135 42:83 43:83 44:85 45:114 46:98 47:85 48:84 49:102 50:83 51:83 52:78 53:80 54:77 55:78 56:78 57:152 58:76 59:78 60:85 61:76 62:74 63:84 64:76 65:127 
1e-07 1:90 2:90 3:91 4:89 5:117 6:91 7:87 8:102 9:90 10:87 11:88 12:98 13:96 14:119 15:124 16:109 17:102 18:104 19:86 20:92 21:140 22:116 23:99 24:154 25:82 26:84 27:84 28:85 29:129 30:144 31:116 32:110 33:131 34:174 35:131 36:103 37:86 38:86 39:86 40:89 41:89 42:117 43:124 44:157 45:84 46:88 47:105 48:91 49:86 50:87 51:88 52:85 53:85 54:86 55:87 56:109 57:85 58:99 59:87 60:86 61:137 62:140 63:86 64:151 65:145 
1e-07 1:93 2:91 3:89 4:91 5:111 6:88 7:93 8:143 9:89 10:128 11:129 12:88 13:137 14:148 15:84 16:95 17:107 18:84 19:160 20:124 21:112 22:99 23:101 24:119 25:89 26:98 27:122 28:131 29:133 30:138 31:136 32:132 33:130 34:112 35:92 36:86 37:83 38:81 39:80 40:80 41:80 42:133 43:118 44:116 45:87 46:92 47:93 48:83 49:81 50:80 51:96 52:82 53:76 54:110 55:115 56:75 57:105 58:117 59:77 60:120 61:115 62:78 63:104 64:92 65:78 
1e-07 1:88 2:103 3:133 4:85 5:81 6:135 7:85 8:82 9:88 10:86 11:84 12:85 13:86 14:86 15:89 16:86 17:86 18:89 19:91 20:93 21:98 22:118 23:120 24:123 25:84 26:85 27:87 28:88 29:89 30:89 31:87 32:88 33:87 34:86 35:87 36:95 37:106 38:117 39:120 40:119 41:150 42:88 43:95 44:108 45:100 46:121 47:103 48:110 49:85 50:88 51:95 52:110 53:123 54:86 55:91 56:98 57:85 58:83 59:94 60:82 61:86 62:87 63:80 64:86 65:99 
1e-07 1:102 2:86 3:79 4:88 5:86 6:82 7:89 8:89 9:87 10:90 11:87 12:87 13:88 14:86 15:86 16:86 17:85 18:84 19:109 20:87 21:81 22:86 23:84 24:83 25:96 26:85 27:88 28:89 29:88 30:86 31:84 32:84 33:84 34:83 35:83 36:82 37:81 38:81 39:83 40:83 41:83 42:85 43:85 44:84 45:91 46:83 47:82 48:114 49:111 50:101 51:102 52:103 53:114 54:97 55:100 56:88 57:87 58:91 59:89 60:98 61:89 62:88 63:118 64:85 65:88 
1e-07 1:80 2:80 3:80 4:80 5:81 6:81 7:80 8:82 9:83 10:80 11:77 12:82 13:78 14:80 15:86 16:117 17:122 18:112 19:83 20:103 21:105 22:81 23:117 24:175 25:78 26:78 27:78 28:77 29:76 30:80 31:97 32:107 33:139 34:168 35:102 36:108 37:130 38:136 39:116 40:91 41:76 42:100 43:136 44:177 45:95 46:126 47:88 48:78 49:108 50:80 51:81 52:94 53:80 54:82 55:83 56:78 57:86 58:84 59:77 60:86 61:97 62:94 63:86 64:124 65:86 
1e-07 1:80 2:80 3:80 4:79 5:80 6:79 7:78 8:87 9:80 10:80 11:140 12:108 13:82 14:166 15:87 16:146 17:96 18:75 19:144 20:79 21:76 22:114 23:79 24:77 25:77 26:84 27:114 28:139 29:121 30:111 31:165 32:91 33:76 34:75 35:76 36:77 37:77 38:79 39:80 40:80 41:80 42:126 43:99 44:85 45:153 46:116 47:120 48:79 49:79 50:104 51:83 52:83 53:82 54:83 55:84 56:82 57:80 58:82 59:76 60:84 61:78 62:76 63:103 64:78 65:78 
1e-07 1:84 2:143 3:91 4:83 5:86 6:83 7:83 8:82 9:83 10:82 11:79 12:123 13:83 14:83 15:117 16:84 17:82 18:91 19:83 20:83 21:82 22:83 23:84 24:83 25:88 26:88 27:87 28:87 29:87 30:85 31:85 32:84 33:86 34:94 35:106 36:107 37:100 38:101 39:98 40:104 41:105 42:93 43:117 44:130 45:90 46:143 47:101 48:88 49:93 50:105 51:89 52:86 53:101 54:91 55:87 56:79 57:90 58:85 59:76 60:89 61:81 62:76 63:88 64:80 65:74 
1e-07 1:106 2:77 3:77 4:79 5:84 6:76 7:81 8:80 9:74 10:79 11:80 12:74 13:92 14:78 15:74 16:78 17:77 18:76 19:78 20:78 21:76 22:85 23:83 24:75 25:107 26:108 27:107 28:108 29:108 30:109 31:112 32:114 33:115 34:115 35:103 36:78 37:76 38:75 39:75 40:75 41:75 42:108 43:109 44:114 45:87 46:81 47:74 48:73 49:77 50:77 51:96 52:80 53:77 54:93 55:77 56:75 57:75 58:92 59:73 60:75 61:107 62:92 63:73 64:71 65:95 
1e-07 1:90 2:83 3:78 4:69 5:81 6:49 7:28 8:85 9:83 10:35 11:87 12:27 13:74 14:81 15:26 16:90 17:66 18:18 19:45 20:45 21:29 22:32 23:35 24:70 25:71 26:34 27:64 28:33 29:83 30:70 31:36 32:39 33:66 34:80 35:24 36:19 37:22 38:27 39:86 40:42 41:53 42:41 43:84 44:82 45:44 46:89 47:40 48:84 49:91 50:33 51:62 52:85 53:28 54:33 55:79 56:32 57:46 58:73 59:83 60:27 61:55 62:40 63:75 64:36 65:32 
1e-07 1:65 2:78 3:83 4:83 5:63 6:65 7:90 8:50 9:35 10:95 11:50 12:12 13:63 14:57 15:59 16:22 17:36 18:55 19:55 20:37 21:13 22:84 23:60 24:25 25:46 26:39 27:94 28:99 29:60 30:36 31:90 32:71 33:34 34:20 35:14 36:56 37:65 38:16 39:21 40:24 41:66 42:77 43:46 44:22 45:89 46:60 47:17 48:38 49:39 50:60 51:60 52:55 53:65 54:55 55:50 56:14 57:105 58:28 59:41 60:64 61:30 62:26 63:25 64:30 65:68 
1e-07 1:71 2:19 3:35 4:28 5:10 6:40 7:32 8:15 9:79 10:55 11:30 12:24 13:67 14:51 15:34 16:66 17:70 18:67 19:87 20:83 21:72 22:91 23:91 24:100 25:83 26:83 27:84 28:84 29:86 30:85 31:88 32:91 33:96 34:96 35:99 36:82 37:83 38:83 39:86 40:83 41:85 42:93 43:96 44:95 45:88 46:96 47:98 48:84 49:96 50:86 51:87 52:96 53:81 54:86 55:97 56:84 57:85 58:97 59:87 60:84 61:97 62:87 63:82 64:97 65:91 
1e-07 1:26 2:27 3:72 4:37 5:24 6:39 7:73 8:16 9:58 10:38 11:19 12:41 13:99 14:40 15:69 16:72 17:68 18:83 19:66 20:81 21:69 22:87 23:85 24:86 25:90 26:91 27:97 28:95 29:89 30:88 31:87 32:84 33:87 34:85 35:84 36:84 37:81 38:83 39:86 40:84 41:84 42:83 43:86 44:84 45:87 46:85 47:83 48:89 49:85 50:83 51:91 52:86 53:83 54:94 55:86 56:84 57:96 58:85 59:85 60:96 61:85 62:84 63:95 64:84 65:84 
1e-07 1:77 2:81 3:82 4:77 5:82 6:83 7:80 8:88 9:113 10:81 11:105 12:95 13:81 14:83 15:87 16:82 17:83 18:89 19:82 20:83 21:87 22:81 23:83 24:86 25:83 26:83 27:83 28:83 29:83 30:83 31:88 32:101 33:108 34:111 35:113 36:111 37:114 38:148 39:114 40:93 41:93 42:93 43:90 44:88 45:82 46:82 47:87 48:83 49:83 50:87 51:83 52:83 53:81 54:83 55:83 56:101 57:84 58:89 59:104 60:85 61:101 62:86 63:83 64:81 65:85 
1e-07 1:82 2:84 3:86 4:85 5:84 6:86 7:106 8:84 9:86 10:91 11:84 12:85 13:87 14:84 15:84 16:85 17:84 18:84 19:86 20:85 21:83 22:84 23:84 24:83 25:90 26:91 27:89 28:86 29:84 30:84 31:84 32:84 33:83 34:83 35:83 36:83 37:83 38:83 39:83 40:83 41:83 42:83 43:82 44:82 45:82 46:82 47:82 48:122 49:83 50:83 51:86 52:85 53:83 54:91 55:92 56:84 57:103 58:103 59:86 60:85 61:83 62:84 63:84 64:84 65:85 
1e-07 1:82 2:80 3:84 4:82 5:81 6:86 7:81 8:80 9:82 10:80 11:78 12:97 13:82 14:98 15:112 16:83 17:103 18:85 19:79 20:79 21:81 22:81 23:82 24:82 25:75 26:76 27:77 28:78 29:79 30:79 31:79 32:81 33:80 34:82 35:100 36:120 37:99 38:81 39:80 40:81 41:87 42:76 43:88 44:106 45:77 46:108 47:78 48:79 49:83 50:85 51:78 52:77 53:100 54:82 55:77 56:129 57:81 58:77 59:117 60:76 61:75 62:78 63:76 64:74 65:80 
1e-07 1:85 2:82 3:85 4:86 5:86 6:85 7:100 8:120 9:85 10:102 11:86 12:84 13:82 14:84 15:84 16:84 17:85 18:84 19:83 20:84 21:84 22:86 23:82 24:82 25:93 26:102 27:107 28:112 29:119 30:120 31:120 32:122 33:113 34:95 35:84 36:85 37:85 38:83 39:83 40:83 41:83 42:90 43:103 44:127 45:84 46:80 47:141 48:84 49:98 50:84 51:86 52:119 53:85 54:128 55:128 56:85 57:97 58:82 59:84 60:78 61:80 62:84 63:80 64:80 65:83 
1e-07 1:92 2:92 3:86 4:94 5:92 6:88 7:96 8:95 9:91 10:97 11:100 12:91 13:97 14:105 15:102 16:98 17:110 18:120 19:99 20:105 21:113 22:98 23:98 24:97 25:97 26:97 27:97 28:97 29:96 30:96 31:98 32:98 33:97 34:96 35:96 36:96 37:97 38:98 39:97 40:97 41:97 42:98 43:98 44:97 45:99 46:98 47:98 48:98 49:99 50:97 51:97 52:99 53:97 54:97 55:99 56:102 57:96 58:98 59:142 60:96 61:97 62:103 63:96 64:96 65:94 
1e-07 1:86 2:86 3:92 4:86 5:88 6:92 7:89 8:89 9:93 10:93 11:90 12:91 13:111 14:89 15:89 16:134 17:89 18:87 19:106 20:88 21:85 22:86 23:87 24:86 25:90 26:86 27:110 28:148 29:148 30:109 31:88 32:88 33:87 34:86 35:85 36:85 37:85 38:85 39:87 40:89 41:89 42:88 43:86 44:85 45:88 46:86 47:84 48:90 49:87 50:84 51:93 52:89 53:86 54:93 55:89 56:88 57:93 58:87 59:91 60:96 61:87 62:92 63:95 64:89 65:93 
1e-07 1:96 2:99 3:93 4:97 5:112 6:121 7:97 8:136 9:138 10:97 11:135 12:133 13:99 14:106 15:113 16:144 17:90 18:140 19:114 20:92 21:150 22:98 23:97 24:104 25:93 26:107 27:139 28:143 29:115 30:96 31:95 32:98 33:100 34:98 35:121 36:144 37:117 38:94 39:96 40:100 41:99 42:98 43:100 44:96 45:99 46:100 47:102 48:97 49:98 50:124 51:97 52:96 53:142 54:95 55:96 56:125 57:96 58:96 59:102 60:97 61:97 62:97 63:98 64:97 65:95 
1e-07 1:104 2:107 3:95 4:144 5:123 6:95 7:104 8:90 9:92 10:88 11:82 12:87 13:91 14:83 15:117 16:89 17:84 18:130 19:84 20:105 21:130 22:116 23:132 24:132 25:98 26:97 27:96 28:95 29:94 30:99 31:119 32:129 33:117 34:98 35:90 36:90 37:89 38:90 39:91 40:91 41:90 42:115 43:101 44:94 45:138 46:140 47:129 48:131 49:117 50:114 51:94 52:84 53:93 54:88 55:83 56:89 57:92 58:85 59:60 60:92 61:84 62:36 63:94 64:85 65:36 
1e-07 1:57 2:61 3:62 4:79 5:85 6:85 7:84 8:82 9:82 10:101 11:81 12:82 13:107 14:83 15:82 16:104 17:85 18:82 19:107 20:109 21:91 22:86 23:85 24:83 25:78 26:78 27:78 28:79 29:81 30:82 31:84 32:83 33:83 34:83 35:84 36:84 37:84 38:81 39:81 40:81 41:81 42:84 43:81 44:82 45:84 46:85 47:83 48:102 49:103 50:81 51:101 52:77 53:81 54:96 55:95 56:80 57:82 58:91 59:80 60:89 61:80 62:79 63:87 64:102 65:79 
1e-07 1:62 2:81 3:89 4:85 5:108 6:87 7:85 8:101 9:86 10:84 11:90 12:86 13:85 14:91 15:111 16:85 17:99 18:87 19:85 20:80 21:81 22:90 23:100 24:112 25:80 26:79 27:81 28:83 29:85 30:86 31:85 32:93 33:104 34:102 35:95 36:89 37:90 38:95 39:97 40:95 41:85 42:97 43:95 44:100 45:106 46:122 47:87 48:118 49:105 50:117 51:125 52:89 53:86 54:80 55:83 56:80 57:81 58:83 59:80 60:80 61:85 62:80 63:80 64:99 65:100 
1e-07 1:86 2:101 3:80 4:104 5:85 6:79 7:97 8:78 9:77 10:98 11:77 12:78 13:100 14:95 15:74 16:78 17:94 18:102 19:76 20:73 21:74 22:83 23:96 24:86 25:78 26:69 27:69 28:66 29:69 30:84 31:104 32:108 33:102 34:128 35:92 36:89 37:101 38:73 39:73 40:73 41:73 42:69 43:93 44:114 45:71 46:87 47:91 48:70 49:74 50:84 51:79 52:71 53:78 54:85 55:71 56:90 57:79 58:72 59:101 60:70 61:82 62:84 63:74 64:91 65:74 
1e-07 1:80 2:86 3:80 4:79 5:109 6:80 7:80 8:87 9:81 10:84 11:89 12:80 13:89 14:92 15:96 16:94 17:93 18:99 19:93 20:86 21:77 22:79 23:75 24:80 25:73 26:73 27:72 28:72 29:72 30:73 31:73 32:73 33:74 34:109 35:102 36:82 37:77 38:74 39:73 40:72 41:70 42:72 43:75 44:74 45:70 46:74 47:110 48:67 49:73 50:91 51:69 52:72 53:128 54:70 55:73 56:78 57:73 58:74 59:86 60:74 61:81 62:77 63:75 64:77 65:79 
1e-07 1:81 2:113 3:76 4:79 5:123 6:124 7:106 8:80 9:87 10:102 11:82 12:81 13:110 14:85 15:82 16:147 17:85 18:86 19:107 20:81 21:97 22:81 23:95 24:145 25:82 26:84 27:84 28:84 29:84 30:84 31:83 32:80 33:131 34:137 35:106 36:123 37:116 38:116 39:117 40:114 41:105 42:80 43:135 44:141 45:85 46:124 47:103 48:84 49:103 50:89 51:81 52:81 53:112 54:80 55:92 56:77 57:79 58:105 59:78 60:79 61:78 62:78 63:79 64:78 65:77 
1e-07 1:76 2:76 3:77 4:91 5:77 6:76 7:104 8:79 9:76 10:107 11:82 12:75 13:103 14:81 15:74 16:80 17:79 18:74 19:78 20:76 21:76 22:74 23:73 24:74 25:93 26:155 27:126 28:76 29:77 30:75 31:75 32:73 33:73 34:74 35:75 36:76 37:76 38:76 39:76 40:76 41:77 42:74 43:74 44:75 45:75 46:75 47:75 48:78 49:74 50:75 51:82 52:75 53:74 54:138 55:79 56:74 57:75 58:100 59:74 60:77 61:77 62:75 63:77 64:75 65:76 
1e-07 1:79 2:76 3:77 4:82 5:96 6:76 7:82 8:110 9:76 10:77 11:129 12:78 13:96 14:144 15:78 16:101 17:121 18:75 19:75 20:120 21:80 22:121 23:129 24:93 25:77 26:75 27:87 28:132 29:125 30:96 31:99 32:143 33:139 34:88 35:83 36:79 37:78 38:79 39:77 40:75 41:77 42:132 43:123 44:69 45:74 46:122 47:78 48:77 49:119 50:76 51:75 52:98 53:76 54:75 55:78 56:75 57:77 58:77 59:75 60:77 61:76 62:76 63:77 64:75 65:74 
1e-07 1:77 2:75 3:75 4:77 5:75 6:74 7:78 8:76 9:74 10:74 11:77 12:73 13:73 14:75 15:73 16:99 17:74 18:74 19:134 20:73 21:73 22:127 23:77 24:74 25:133 26:119 27:77 28:77 29:78 30:76 31:97 32:137 33:88 34:72 35:73 36:73 37:73 38:73 39:73 40:73 41:74 42:129 43:112 44:72 45:76 46:132 47:71 48:75 49:138 50:72 51:75 52:140 53:74 54:75 55:140 56:75 57:77 58:131 59:76 60:78 61:85 62:77 63:76 64:76 65:77 
1e-07 1:93 2:90 3:94 4:93 5:90 6:90 7:93 8:94 9:123 10:102 11:152 12:134 13:93 14:96 15:147 16:83 17:86 18:104 19:84 20:85 21:88 22:85 23:85 24:86 25:88 26:81 27:81 28:81 29:81 30:81 31:83 32:83 33:84 34:86 35:86 36:88 37:89 38:88 39:87 40:89 41:88 42:82 43:84 44:86 45:82 46:90 47:102 48:81 49:139 50:141 51:81 52:84 53:92 54:82 55:78 56:144 57:83 58:80 59:199 60:83 61:81 62:119 63:84 64:80 65:158 
1e-07 1:94 2:102 3:90 4:137 5:112 6:91 7:146 8:130 9:98 10:128 11:87 12:88 13:186 14:99 15:87 16:141 17:94 18:88 19:84 20:88 21:86 22:120 23:96 24:84 25:88 26:90 27:93 28:96 29:100 30:102 31:106 32:106 33:93 34:89 35:133 36:135 37:85 38:85 39:88 40:89 41:89 42:83 43:96 44:173 45:86 46:178 47:123 48:92 49:143 50:82 51:105 52:85 53:116 54:144 55:136 56:117 57:121 58:83 59:113 60:118 61:122 62:107 63:164 64:121 65:86 
1e-07 1:84 2:79 3:196 4:83 5:81 6:90 7:81 8:82 9:80 10:83 11:81 12:81 13:83 14:83 15:80 16:83 17:85 18:105 19:84 20:84 21:94 22:83 23:82 24:83 25:81 26:81 27:81 28:81 29:82 30:83 31:84 32:85 33:85 34:86 35:85 36:84 37:90 38:114 39:142 40:157 41:144 42:88 43:88 44:85 45:85 46:99 47:146 48:83 49:127 50:89 51:80 52:85 53:80 54:81 55:82 56:79 57:84 58:84 59:80 60:83 61:83 62:81 63:81 64:79 65:76 
3.680614280596867e-08 1:101 2:81 3:84 4:82 5:82 6:84 7:83 8:85 9:123 10:79 11:111 12:121 13:93 14:146 15:108 16:157 17:176 18:100 19:93 20:173 21:72 22:161 23:181 24:93 25:118 26:93 27:78 28:76 29:77 30:76 31:77 32:152 33:187 34:100 35:75 36:75 37:74 38:74 39:75 40:77 41:79 42:138 43:196 44:109 45:72 46:203 47:80 48:76 49:202 50:80 51:79 52:193 53:81 54:80 55:184 56:84 57:83 58:175 59:83 60:83 61:154 62:82 63:77 64:78 65:84 
1e-07 1:60 2:86 3:115 4:94 5:160 6:118 7:91 8:96 9:90 10:94 11:92 12:91 13:168 14:92 15:93 16:163 17:90 18:89 19:159 20:123 21:107 22:121 23:133 24:140 25:88 26:88 27:88 28:89 29:90 30:90 31:88 32:87 33:87 34:87 35:90 36:91 37:89 38:89 39:89 40:89 41:88 42:90 43:90 44:91 45:90 46:91 47:91 48:89 49:91 50:87 51:91 52:87 53:87 54:91 55:87 56:86 57:93 58:86 59:86 60:92 61:86 62:86 63:92 64:90 65:158 
1e-07 1:114 2:63 3:89 4:117 5:113 6:94 7:88 8:102 9:94 10:174 11:133 12:93 13:144 14:103 15:92 16:93 17:91 18:91 19:92 20:90 21:92 22:90 23:90 24:91 25:88 26:89 27:90 28:90 29:90 30:89 31:89 32:89 33:90 34:92 35:93 36:93 37:91 38:89 39:89 40:89 41:89 42:88 43:89 44:91 45:90 46:90 47:91 48:90 49:92 50:91 51:97 52:90 53:91 54:87 55:85 56:91 57:86 58:82 59:91 60:90 61:126 62:150 63:166 64:180 65:113 
1e-07 1:109 2:185 3:136 4:166 5:108 6:89 7:85 8:88 9:88 10:87 11:88 12:87 13:87 14:86 15:84 16:87 17:84 18:92 19:85 20:96 21:148 22:158 23:178 24:178 25:84 26:88 27:101 28:129 29:161 30:180 31:179 32:154 33:120 34:96 35:87 36:87 37:88 38:88 39:89 40:89 41:89 42:88 43:85 44:86 45:87 46:86 47:85 48:86 49:86 50:86 51:87 52:86 53:88 54:84 55:86 56:88 57:84 58:86 59:86 60:84 61:85 62:86 63:81 64:84 65:86 
5.839189272145441e-08 1:122 2:126 3:92 4:90 5:197 6:93 7:87 8:150 9:92 10:180 11:148 12:90 13:103 14:166 15:89 16:93 17:178 18:93 19:129 20:189 21:92 22:205 23:196 24:114 25:90 26:90 27:90 28:92 29:94 30:95 31:122 32:203 33:204 34:118 35:95 36:95 37:93 38:92 39:92 40:92 41:91 42:199 43:204 44:120 45:118 46:201 47:94 48:89 49:198 50:91 51:89 52:189 53:87 54:88 55:171 56:88 57:85 58:147 59:91 60:86 61:119 62:91 63:86 64:91 65:65 
1e-07 1:107 2:240 3:97 4:84 5:192 6:133 7:88 8:107 9:143 10:84 11:132 12:109 13:145 14:123 15:108 16:142 17:143 18:141 19:101 20:91 21:85 22:145 23:147 24:148 25:86 26:85 27:84 28:82 29:82 30:83 31:84 32:86 33:87 34:93 35:99 36:113 37:142 38:135 39:103 40:97 41:96 42:88 43:86 44:93 45:88 46:87 47:156 48:87 49:88 50:170 51:87 52:86 53:128 54:87 55:85 56:121 57:86 58:80 59:187 60:85 61:119 62:139 63:85 64:150 65:92 
1e-07 1:95 2:89 3:88 4:163 5:89 6:88 7:99 8:88 9:89 10:87 11:85 12:88 13:139 14:146 15:133 16:132 17:147 18:181 19:93 20:101 21:144 22:112 23:110 24:107 25:93 26:91 27:90 28:90 29:89 30:88 31:87 32:87 33:87 34:87 35:88 36:88 37:88 38:89 39:89 40:90 41:89 42:86 43:87 44:87 45:86 46:87 47:86 48:86 49:89 50:89 51:87 52:86 53:86 54:100 55:106 56:87 57:137 58:119 59:113 60:105 61:90 62:131 63:135 64:90 65:89 
6.218075336312826e-08 1:140 2:87 3:168 4:130 5:87 6:93 7:186 8:84 9:86 10:87 11:80 12:84 13:82 14:83 15:81 16:82 17:172 18:81 19:86 20:207 21:112 22:164 23:198 24:191 25:122 26:117 27:108 28:102 29:106 30:117 31:129 32:155 33:195 34:188 35:122 36:91 37:98 38:116 39:139 40:139 41:115 42:129 43:194 44:193 45:105 46:184 47:130 48:137 49:129 50:91 51:95 52:94 53:164 54:86 55:156 56:94 57:93 58:124 59:83 60:123 61:85 62:112 63:94 64:85 65:107 
1e-07 1:221 2:138 3:89 4:131 5:111 6:87 7:95 8:89 9:92 10:189 11:137 12:93 13:102 14:108 15:124 16:126 17:112 18:128 19:117 20:98 21:88 22:161 23:165 24:152 25:118 26:157 27:170 28:166 29:152 30:141 31:148 32:144 33:139 34:128 35:115 36:153 37:202 38:178 39:126 40:96 41:89 42:146 43:144 44:127 45:163 46:121 47:94 48:93 49:84 50:90 51:79 52:106 53:94 54:110 55:113 56:139 57:87 58:81 59:91 60:95 61:81 62:107 63:114 64:133 65:113 
1e-07 1:67 2:68 3:103 4:91 5:110 6:106 7:90 8:157 9:89 10:90 11:101 12:87 13:111 14:90 15:91 16:96 17:90 18:94 19:90 20:87 21:86 22:87 23:86 24:86 25:93 26:94 27:92 28:91 29:89 30:88 31:97 32:98 33:86 34:86 35:90 36:90 37:136 38:131 39:104 40:140 41:117 42:99 43:86 44:86 45:106 46:86 47:90 48:129 49:97 50:89 51:111 52:108 53:152 54:96 55:103 56:109 57:91 58:94 59:93 60:92 61:91 62:90 63:92 64:90 65:90 
1e-07 1:89 2:69 3:69 4:139 5:95 6:100 7:100 8:95 9:124 10:93 11:96 12:98 13:93 14:95 15:93 16:132 17:93 18:92 19:100 20:105 21:91 22:165 23:119 24:92 25:90 26:93 27:97 28:92 29:93 30:93 31:93 32:162 33:116 34:91 35:92 36:92 37:94 38:95 39:92 40:93 41:95 42:157 43:115 44:90 45:89 46:127 47:91 48:90 49:155 50:91 51:97 52:155 53:85 54:90 55:100 56:83 57:111 58:88 59:83 60:106 61:90 62:83 63:90 64:89 65:83 
1e-07 1:93 2:85 3:92 4:92 5:88 6:91 7:87 8:87 9:97 10:84 11:87 12:113 13:83 14:86 15:123 16:85 17:83 18:151 19:86 20:84 21:129 22:84 23:85 24:86 25:85 26:85 27:86 28:87 29:86 30:86 31:86 32:84 33:83 34:92 35:131 36:151 37:148 38:97 39:146 40:124 41:93 42:84 43:84 44:127 45:84 46:94 47:134 48:83 49:87 50:86 51:82 52:84 53:122 54:83 55:83 56:114 57:85 58:80 59:88 60:83 61:79 62:152 63:86 64:79 65:121 
1e-07 1:91 2:88 3:82 4:88 5:86 6:81 7:90 8:87 9:82 10:89 11:89 12:87 13:89 14:89 15:92 16:85 17:90 18:174 19:103 20:90 21:87 22:88 23:90 24:89 25:117 26:117 27:129 28:98 29:97 30:141 31:88 32:87 33:88 34:87 35:89 36:87 37:141 38:150 39:87 40:87 41:84 42:86 43:88 44:86 45:83 46:84 47:86 48:84 49:84 50:87 51:83 52:84 53:87 54:83 55:84 56:93 57:88 58:82 59:160 60:88 61:82 62:111 63:87 64:84 65:72 
1e-07 1:91 2:90 3:87 4:90 5:89 6:98 7:90 8:89 9:119 10:90 11:90 12:97 13:90 14:120 15:88 16:91 17:97 18:90 19:108 20:89 21:88 22:90 23:90 24:90 25:90 26:87 27:99 28:121 29:97 30:90 31:90 32:89 33:89 34:88 35:87 36:94 37:102 38:83 39:81 40:82 41:82 42:88 43:87 44:87 45:89 46:87 47:87 48:91 49:90 50:126 51:90 52:138 53:179 54:90 55:99 56:114 57:91 58:89 59:143 60:93 61:105 62:113 63:92 64:149 65:119 
1e-07 1:86 2:86 3:86 4:103 5:87 6:87 7:96 8:122 9:87 10:82 11:99 12:85 13:82 14:87 15:126 16:84 17:88 18:85 19:87 20:87 21:86 22:89 23:87 24:85 25:83 26:82 27:90 28:112 29:134 30:140 31:101 32:86 33:86 34:85 35:85 36:86 37:87 38:86 39:87 40:94 41:135 42:86 43:86 44:86 45:91 46:86 47:87 48:127 49:106 50:87 51:160 52:159 53:87 54:104 55:89 56:85 57:94 58:88 59:85 60:108 61:87 62:86 63:136 64:87 65:90 
1e-07 1:91 2:177 3:89 4:90 5:153 6:88 7:88 8:88 9:88 10:88 11:88 12:86 13:88 14:139 15:88 16:91 17:144 18:153 19:107 20:107 21:159 22:88 23:109 24:97 25:84 26:85 27:113 28:109 29:86 30:83 31:81 32:87 33:97 34:92 35:160 36:126 37:81 38:84 39:83 40:80 41:78 42:82 43:82 44:87 45:88 46:85 47:144 48:101 49:92 50:148 51:89 52:113 53:82 54:92 55:89 56:94 57:88 58:88 59:92 60:86 61:86 62:109 63:55 64:86 65:78 
1e-07 1:105 2:86 3:89 4:114 5:84 6:84 7:128 8:84 9:89 10:117 11:84 12:81 13:83 14:85 15:80 16:108 17:106 18:85 19:100 20:89 21:85 22:83 23:85 24:86 25:79 26:80 27:78 28:82 29:85 30:89 31:85 32:82 33:84 34:86 35:87 36:83 37:79 38:89 39:129 40:94 41:76 42:84 43:87 44:87 45:84 46:87 47:83 48:84 49:85 50:121 51:90 52:103 53:76 54:102 55:112 56:77 57:102 58:90 59:79 60:104 61:88 62:79 63:79 64:83 65:73 
1e-07 1:86 2:85 3:115 4:101 5:126 6:100 7:98 8:114 9:108 10:95 11:91 12:95 13:106 14:110 15:109 16:103 17:111 18:118 19:94 20:94 21:113 22:98 23:127 24:171 25:101 26:104 27:106 28:105 29:104 30:114 31:139 32:163 33:166 34:142 35:116 36:121 37:126 38:118 39:123 40:127 41:126 42:115 43:100 44:98 45:130 46:112 47:101 48:142 49:105 50:108 51:108 52:107 53:165 54:94 55:108 56:123 57:93 58:147 59:131 60:91 61:128 62:95 63:91 64:87 65:125 
1e-07 1:145 2:83 3:77 4:120 5:99 6:94 7:100 8:98 9:92 10:100 11:95 12:88 13:100 14:93 15:94 16:95 17:92 18:92 19:94 20:91 21:90 22:93 23:92 24:92 25:128 26:130 27:131 28:129 29:130 30:128 31:123 32:110 33:90 34:90 35:89 36:88 37:87 38:88 39:87 40:87 41:87 42:94 43:89 44:89 45:88 46:88 47:88 48:90 49:87 50:86 51:89 52:86 53:86 54:93 55:85 56:86 57:87 58:85 59:85 60:86 61:85 62:85 63:97 64:85 65:85 
1e-07 1:90 2:94 3:117 4:89 5:142 6:144 7:89 8:179 9:186 10:105 11:148 12:132 13:88 14:113 15:123 16:86 17:88 18:148 19:106 20:104 21:143 22:109 23:122 24:116 25:81 26:81 27:82 28:83 29:85 30:88 31:106 32:117 33:109 34:107 35:93 36:118 37:174 38:104 39:101 40:105 41:99 42:93 43:124 44:160 45:93 46:97 47:96 48:88 49:99 50:132 51:93 52:143 53:159 54:93 55:107 56:176 57:81 58:142 59:186 60:77 61:80 62:145 63:84 64:83 65:91 
1e-07 1:106 2:84 3:84 4:84 5:82 6:83 7:83 8:81 9:82 10:83 11:80 12:79 13:82 14:79 15:78 16:95 17:79 18:79 19:91 20:80 21:79 22:84 23:83 24:82 25:91 26:88 27:85 28:82 29:80 30:82 31:83 32:85 33:85 34:85 35:84 36:82 37:81 38:81 39:81 40:79 41:79 42:84 43:85 44:86 45:81 46:80 47:82 48:78 49:78 50:77 51:94 52:78 53:76 54:107 55:113 56:100 57:75 58:80 59:106 60:78 61:74 62:74 63:82 64:81 65:82 
1e-07 1:95 2:119 3:118 4:91 5:151 6:95 7:90 8:108 9:100 10:90 11:104 12:96 13:88 14:89 15:94 16:88 17:90 18:93 19:89 20:93 21:95 22:102 23:109 24:117 25:89 26:90 27:91 28:91 29:92 30:94 31:94 32:93 33:95 34:97 35:99 36:101 37:102 38:106 39:107 40:101 41:97 42:97 43:97 44:109 45:93 46:94 47:118 48:92 49:91 50:86 51:91 52:93 53:124 54:90 55:124 56:94 57:90 58:113 59:104 60:89 61:167 62:137 63:85 64:183 65:123 
1e-07 1:174 2:98 3:92 4:94 5:100 6:94 7:95 8:101 9:94 10:98 11:101 12:94 13:98 14:102 15:96 16:99 17:99 18:96 19:98 20:96 21:95 22:96 23:96 24:96 25:100 26:99 27:97 28:97 29:97 30:97 31:97 32:97 33:97 34:97 35:97 36:97 37:96 38:96 39:96 40:98 41:98 42:96 43:97 44:97 45:94 46:95 47:94 48:93 49:94 50:96 51:89 52:92 53:94 54:96 55:91 56:92 57:100 58:88 59:92 60:143 61:89 62:91 63:155 64:91 65:88 
1e-07 1:87 2:173 3:169 4:85 5:120 6:121 7:173 8:117 9:98 10:95 11:146 12:104 13:121 14:85 15:105 16:90 17:110 18:86 19:91 20:102 21:99 22:90 23:90 24:87 25:86 26:87 27:88 28:89 29:91 30:92 31:92 32:91 33:90 34:89 35:88 36:87 37:88 38:89 39:89 40:89 41:89 42:91 43:90 44:89 45:93 46:91 47:89 48:94 49:92 50:113 51:91 52:146 53:120 54:89 55:153 56:110 57:101 58:166 59:90 60:91 61:101 62:89 63:87 64:86 65:119 
1e-07 1:164 2:91 3:89 4:100 5:90 6:92 7:92 8:89 9:92 10:94 11:90 12:90 13:90 14:89 15:90 16:89 17:89 18:90 19:87 20:89 21:90 22:87 23:89 24:89 25:89 26:88 27:87 28:87 29:87 30:86 31:87 32:89 33:91 34:89 35:86 36:86 37:86 38:86 39:87 40:88 41:88 42:89 43:89 44:87 45:91 46:88 47:84 48:91 49:87 50:83 51:89 52:87 53:81 54:84 55:86 56:81 57:83 58:87 59:82 60:85 61:87 62:105 63:117 64:116 65:95 
1e-07 1:98 2:98 3:99 4:97 5:99 6:97 7:97 8:97 9:108 10:94 11:110 12:105 13:107 14:108 15:91 16:125 17:89 18:97 19:145 20:103 21:102 22:144 23:102 24:91 25:82 26:82 27:82 28:82 29:82 30:82 31:80 32:83 33:87 34:90 35:91 36:95 37:88 38:134 39:135 40:86 41:88 42:82 43:82 44:81 45:82 46:82 47:82 48:83 49:83 50:82 51:82 52:81 53:82 54:81 55:87 56:121 57:80 58:86 59:85 60:78 61:85 62:84 63:76 64:79 65:83 
1e-07 1:99 2:98 3:99 4:96 5:98 6:99 7:109 8:96 9:97 10:115 11:97 12:97 13:109 14:104 15:103 16:106 17:96 18:98 19:89 20:91 21:93 22:93 23:93 24:89 25:90 26:89 27:88 28:86 29:86 30:87 31:88 32:94 33:98 34:91 35:94 36:94 37:93 38:93 39:94 40:94 41:93 42:102 43:95 44:93 45:101 46:93 47:97 48:98 49:93 50:96 51:117 52:99 53:92 54:99 55:102 56:91 57:95 58:95 59:90 60:120 61:91 62:90 63:81 64:91 65:91 
1e-07 1:76 2:110 3:84 4:77 5:86 6:80 7:80 8:81 9:80 10:81 11:84 12:80 13:80 14:81 15:79 16:78 17:78 18:85 19:88 20:93 21:102 22:87 23:86 24:84 25:80 26:79 27:79 28:79 29:79 30:78 31:78 32:77 33:77 34:78 35:77 36:85 37:106 38:105 39:87 40:80 41:80 42:76 43:77 44:76 45:75 46:77 47:102 48:77 49:93 50:77 51:77 52:83 53:79 54:78 55:79 56:80 57:77 58:77 59:79 60:75 61:78 62:79 63:74 64:78 65:78 
1e-07 1:101 2:98 3:91 4:82 5:132 6:91 7:83 8:89 9:93 10:80 11:87 12:92 13:102 14:87 15:93 16:86 17:86 18:93 19:86 20:88 21:93 22:102 23:99 24:98 25:119 26:135 27:81 28:83 29:85 30:92 31:100 32:104 33:111 34:110 35:107 36:105 37:108 38:109 39:111 40:112 41:101 42:92 43:93 44:90 45:91 46:94 47:89 48:90 49:95 50:89 51:90 52:95 53:90 54:90 55:92 56:90 57:128 58:90 59:89 60:80 61:87 62:88 63:78 64:84 65:87 
7.500795073915225e-09 1:144 2:145 3:143 4:145 5:146 6:143 7:146 8:147 9:144 10:147 11:147 12:145 13:148 14:148 15:147 16:149 17:148 18:149 19:150 20:150 21:149 22:126 23:156 24:160 25:150 26:156 27:79 28:2 29:39 30:142 31:145 32:86 33:142 34:149 35:154 36:125 37:11 38:4 39:4 40:3 41:4 42:30 43:56 44:60 45:5 46:7 47:97 48:113 49:92 50:159 51:100 52:137 53:112 54:91 55:42 56:116 57:96 58:15 59:94 60:159 61:119 62:163 63:155 64:130 65:125 
5.128112780439509e-08 1:143 2:142 3:142 4:142 5:142 6:142 7:143 8:143 9:143 10:143 11:143 12:143 13:144 14:143 15:143 16:145 17:152 18:147 19:145 20:146 21:146 22:82 23:71 24:69 25:4 26:1 27:44 28:153 29:77 30:124 31:128 32:31 33:2 34:5 36:81 37:154 38:146 39:146 40:146 41:146 42:87 43:38 44:64 45:121 46:90 47:118 48:8 49:94 50:104 51:51 52:91 53:153 54:150 55:96 56:148 57:105 58:74 59:148 60:133 61:15 62:148 63:126 64:10 65:150 
2.19121144419854e-08 1:156 2:21 3:154 4:160 5:33 6:71 7:100 8:138 9:14 10:100 11:111 12:39 13:43 14:10 15:140 16:106 17:31 18:163 19:119 20:100 21:159 22:67 23:92 24:124 25:161 26:165 27:101 28:139 29:166 30:73 31:39 32:81 33:73 34:69 35:160 36:160 37:163 38:69 39:80 40:160 41:154 42:85 43:118 44:72 45:166 46:164 47:111 48:137 49:168 50:150 51:167 52:163 53:168 54:166 55:164 56:167 57:165 58:165 59:164 60:166 61:166 62:165 63:166 64:166 65:165 
3.20964594582468e-08 1:155 2:70 3:153 4:106 5:97 6:105 7:53 8:93 9:19 10:159 11:91 12:127 13:145 14:92 15:111 16:141 17:89 18:65 19:134 20:93 21:154 22:169 23:132 24:156 25:50 26:71 27:156 28:161 29:136 30:35 31:114 32:156 33:152 34:152 35:152 36:151 37:154 38:156 39:156 40:156 41:156 42:63 43:65 44:63 45:58 46:7 47:6 48:150 49:89 50:89 51:164 52:166 53:163 54:162 55:168 56:161 57:163 58:162 59:162 60:165 61:164 62:164 63:165 64:165 65:165 
1e-07 1:88 2:90 3:98 4:89 5:87 6:113 7:88 8:127 9:90 10:89 11:123 12:109 13:89 14:84 15:116 16:87 17:122 18:113 19:128 20:119 21:133 22:135 23:120 24:106 25:83 26:83 27:98 28:168 29:145 30:116 31:98 32:90 33:115 34:124 35:100 36:95 37:124 38:145 39:173 40:147 41:94 42:158 43:149 44:138 45:99 46:124 47:167 48:85 49:126 50:88 51:82 52:109 53:85 54:82 55:81 56:82 57:81 58:83 59:79 60:81 61:82 62:102 63:80 64:123 65:108 
1e-07 1:92 2:92 3:91 4:94 5:91 6:91 7:93 8:90 9:91 10:93 11:89 12:90 13:90 14:89 15:90 16:89 17:89 18:89 19:88 20:87 21:88 22:87 23:87 24:87 25:132 26:159 27:91 28:94 29:87 30:86 31:86 32:86 33:87 34:87 35:87 36:87 37:87 38:87 39:87 40:88 41:89 42:86 43:86 44:86 45:86 46:84 47:84 48:86 49:84 50:84 51:87 52:83 53:85 54:90 55:84 56:82 57:158 58:85 59:85 60:121 61:85 62:85 63:135 64:84 65:85 
1e-07 1:80 2:90 3:133 4:80 5:96 6:134 7:80 8:92 9:133 10:80 11:83 12:139 13:80 14:81 15:142 16:80 17:90 18:97 19:80 20:80 21:80 22:80 23:80 24:80 25:79 26:80 27:80 28:80 29:80 30:80 31:80 32:80 33:80 34:80 35:80 36:79 37:78 38:80 39:79 40:78 41:86 42:80 43:80 44:80 45:80 46:80 47:80 48:80 49:80 50:80 51:80 52:80 53:79 54:80 55:80 56:95 57:80 58:80 59:111 60:80 61:80 62:149 63:80 64:80 65:83 
1e-07 1:127 2:84 3:85 4:121 5:81 6:83 7:118 8:82 9:83 10:86 11:82 12:82 13:121 14:81 15:81 16:134 17:79 18:81 19:91 20:80 21:80 22:79 23:80 24:80 25:94 26:87 27:81 28:81 29:81 30:81 31:80 32:80 33:80 34:80 35:79 36:77 37:79 38:80 39:80 40:80 41:80 42:80 43:81 44:79 45:81 46:80 47:146 48:83 49:85 50:77 51:101 52:155 53:82 54:138 55:150 56:97 57:84 58:102 59:82 60:81 61:104 62:81 63:83 64:82 65:83 
1e-07 1:91 2:90 3:106 4:91 5:112 6:129 7:91 8:100 9:103 10:91 11:89 12:125 13:90 14:94 15:89 16:93 17:128 18:114 19:171 20:133 21:130 22:98 23:104 24:106 25:87 26:87 27:87 28:87 29:86 30:87 31:89 32:101 33:129 34:144 35:138 36:141 37:149 38:145 39:105 40:90 41:91 42:142 43:130 44:125 45:88 46:138 47:100 48:89 49:104 50:90 51:84 52:88 53:87 54:84 55:86 56:91 57:82 58:84 59:184 60:85 61:85 62:111 63:85 64:87 65:87 
1e-07 1:105 2:95 3:94 4:95 5:95 6:144 7:91 8:92 9:164 10:91 11:91 12:202 13:89 14:90 15:134 16:90 17:90 18:89 19:89 20:89 21:89 22:88 23:88 24:88 25:91 26:90 27:88 28:88 29:88 30:88 31:88 32:87 33:85 34:91 35:91 36:89 37:89 38:89 39:89 40:89 41:89 42:97 43:120 44:126 45:126 46:112 47:87 48:93 49:85 50:87 51:85 52:85 53:85 54:84 55:84 56:85 57:85 58:84 59:85 60:86 61:83 62:84 63:86 64:83 65:86 
1e-07 1:84 2:117 3:93 4:84 5:119 6:165 7:83 8:112 9:179 10:83 11:105 12:100 13:81 14:116 15:85 16:92 17:108 18:110 19:81 20:93 21:93 22:82 23:82 24:81 25:80 26:80 27:80 28:80 29:81 30:82 31:82 32:83 33:83 34:82 35:83 36:82 37:97 38:138 39:140 40:114 41:139 42:81 43:82 44:82 45:81 46:84 47:112 48:81 49:93 50:84 51:81 52:89 53:86 54:81 55:82 56:101 57:86 58:83 59:142 60:90 61:84 62:85 63:81 64:84 65:86 
1e-07 1:115 2:86 3:85 4:112 5:89 6:84 7:96 8:87 9:84 10:116 11:87 12:81 13:105 14:86 15:81 16:83 17:84 18:83 19:82 20:82 21:83 22:83 23:83 24:83 25:87 26:84 27:83 28:100 29:167 30:121 31:82 32:86 33:86 34:84 35:82 36:82 37:82 38:82 39:82 40:82 41:82 42:87 43:86 44:83 45:155 46:86 47:81 48:90 49:84 50:81 51:96 52:83 53:81 54:98 55:96 56:82 57:83 58:120 59:83 60:85 61:113 62:83 63:86 64:84 65:83 
1e-07 1:90 2:91 3:87 4:90 5:91 6:127 7:89 8:90 9:179 10:90 11:85 12:167 13:88 14:117 15:154 16:142 17:138 18:141 19:94 20:89 21:93 22:91 23:92 24:90 25:88 26:89 27:90 28:89 29:90 30:90 31:90 32:90 33:89 34:106 35:151 36:100 37:90 38:91 39:90 40:90 41:90 42:89 43:90 44:135 45:89 46:104 47:89 48:88 49:93 50:87 51:86 52:89 53:85 54:86 55:88 56:85 57:84 58:88 59:85 60:85 61:90 62:85 63:84 64:170 65:117 
1e-07 1:89 2:90 3:90 4:88 5:89 6:90 7:88 8:88 9:90 10:88 11:88 12:90 13:88 14:88 15:89 16:89 17:89 18:88 19:90 20:91 21:89 22:91 23:92 24:90 25:90 26:87 27:135 28:135 29:87 30:87 31:90 32:89 33:90 34:118 35:110 36:87 37:88 38:88 39:88 40:87 41:87 42:110 43:164 44:152 45:155 46:131 47:86 48:85 49:84 50:87 51:82 52:86 53:87 54:132 55:86 56:86 57:177 58:86 59:86 60:154 61:86 62:86 63:126 64:85 65:86 
1e-07 1:84 2:110 3:89 4:85 5:89 6:85 7:83 8:94 9:85 10:85 11:106 12:85 13:102 14:135 15:86 16:93 17:152 18:97 19:130 20:175 21:145 22:147 23:115 24:122 25:83 26:82 27:82 28:97 29:161 30:180 31:124 32:103 33:130 34:154 35:164 36:184 37:109 38:83 39:99 40:205 41:175 42:145 43:184 44:158 45:142 46:142 47:156 48:126 49:112 50:85 51:120 52:158 53:160 54:116 55:131 56:114 57:86 58:89 59:87 60:84 61:85 62:85 63:82 64:84 65:81 
1e-07 1:87 2:84 3:86 4:167 5:85 6:86 7:85 8:86 9:84 10:149 11:84 12:83 13:124 14:84 15:83 16:84 17:85 18:83 19:85 20:90 21:86 22:127 23:134 24:84 25:93 26:90 27:88 28:83 29:82 30:111 31:134 32:140 33:101 34:85 35:86 36:85 37:84 38:84 39:84 40:84 41:84 42:92 43:86 44:84 45:126 46:127 47:113 48:79 49:89 50:129 51:81 52:83 53:89 54:81 55:83 56:84 57:83 58:83 59:84 60:83 61:83 62:83 63:81 64:83 65:83 
1e-07 1:98 2:147 3:99 4:98 5:201 6:144 7:98 8:195 9:209 10:103 11:140 12:100 13:96 14:104 15:104 16:215 17:104 18:104 19:107 20:105 21:104 22:103 23:101 24:102 25:191 26:197 27:224 28:196 29:116 30:99 31:103 32:101 33:100 34:100 35:101 36:101 37:99 38:100 39:100 40:99 41:99 42:100 43:100 44:100 45:101 46:100 47:101 48:99 49:99 50:100 51:99 52:99 53:118 54:95 55:101 56:146 57:96 58:101 59:98 60:96 61:99 62:97 63:94 64:98 65:96 
5.951416415553759e-08 1:103 2:98 3:105 4:104 5:102 6:112 7:104 8:112 9:101 10:104 11:209 12:103 13:106 14:225 15:104 16:209 17:120 18:103 19:138 20:102 21:100 22:106 23:102 24:99 25:125 26:189 27:201 28:210 29:229 30:159 31:105 32:101 33:102 34:98 35:96 36:96 37:94 38:95 39:95 40:95 41:95 42:110 43:95 44:97 45:231 46:124 47:96 48:102 49:228 50:96 51:99 52:167 53:97 54:98 55:97 56:103 57:99 58:98 59:129 60:98 61:98 62:166 63:97 64:98 65:209 
4.569252136630966e-08 1:92 2:96 3:95 4:92 5:97 6:94 7:93 8:98 9:129 10:94 11:108 12:201 13:103 14:191 15:131 16:171 17:131 18:105 19:102 20:98 21:141 22:107 23:136 24:183 25:92 26:92 27:93 28:94 29:93 30:95 31:124 32:180 33:221 34:217 35:195 36:183 37:172 38:147 39:123 40:111 41:108 42:233 43:204 44:162 45:167 46:109 47:99 48:96 49:94 50:97 51:91 52:91 53:191 54:91 55:92 56:190 57:91 58:87 59:181 60:91 61:86 62:100 63:90 64:90 65:94 
1e-07 1:96 2:98 3:149 4:97 5:98 6:99 7:97 8:98 9:97 10:97 11:97 12:96 13:98 14:97 15:95 16:97 17:96 18:95 19:96 20:95 21:96 22:95 23:95 24:94 25:137 26:200 27:213 28:139 29:95 30:95 31:96 32:95 33:95 34:94 35:94 36:94 37:93 38:93 39:93 40:93 41:93 42:95 43:95 44:94 45:96 46:95 47:94 48:98 49:97 50:95 51:145 52:96 53:95 54:163 55:98 56:95 57:102 58:93 59:94 60:101 61:94 62:94 63:93 64:91 65:92 
1e-07 1:101 2:103 3:106 4:96 5:101 6:106 7:98 8:143 9:126 10:103 11:108 12:109 13:96 14:144 15:175 16:124 17:213 18:141 19:101 20:181 21:103 22:133 23:124 24:105 25:98 26:98 27:99 28:99 29:100 30:101 31:104 32:103 33:101 34:101 35:101 36:102 37:99 38:98 39:101 40:100 41:99 42:97 43:96 44:99 45:103 46:131 47:102 48:150 49:120 50:98 51:142 52:194 53:96 54:106 55:213 56:99 57:93 58:112 59:103 60:98 61:90 62:95 63:99 64:94 65:95 
1e-07 1:106 2:107 3:37 4:107 5:104 6:92 7:107 8:174 9:91 10:105 11:161 12:94 13:104 14:199 15:101 16:102 17:145 18:99 19:101 20:128 21:113 22:112 23:137 24:111 25:98 26:98 27:109 28:143 29:107 30:100 31:97 32:98 33:96 34:97 35:98 36:98 37:98 38:97 39:97 40:97 41:97 42:128 43:128 44:130 45:113 46:102 47:97 48:141 49:120 50:118 51:221 52:108 53:121 54:112 55:94 56:95 57:113 58:94 59:99 60:94 61:93 62:96 63:95 64:98 65:96 
1e-07 1:97 2:115 3:113 4:97 5:121 6:157 7:93 8:111 9:168 10:93 11:114 12:132 13:91 14:165 15:113 16:89 17:141 18:91 19:87 20:85 21:87 22:91 23:118 24:96 25:81 26:81 27:81 28:81 29:81 30:81 31:83 32:82 33:84 34:82 35:97 36:92 37:81 38:80 39:80 40:79 41:82 42:80 43:80 44:79 45:80 46:82 47:162 48:83 49:82 50:123 51:84 52:84 53:84 54:84 55:84 56:97 57:87 58:86 59:138 60:87 61:88 62:84 63:91 64:93 65:97 
1e-07 1:137 2:132 3:91 4:109 5:207 6:85 7:91 8:178 9:83 10:100 11:138 12:81 13:89 14:114 15:81 16:111 17:84 18:83 19:100 20:83 21:82 22:89 23:84 24:82 25:146 26:122 27:96 28:118 29:112 30:102 31:176 32:151 33:85 34:81 35:83 36:83 37:83 38:83 39:83 40:83 41:83 42:198 43:117 44:81 45:83 46:190 47:85 48:85 49:154 50:80 51:85 52:101 53:85 54:142 55:130 56:88 57:111 58:87 59:88 60:93 61:95 62:91 63:136 64:129 65:91 
1e-07 1:98 2:102 3:104 4:97 5:101 6:111 7:98 8:100 9:119 10:98 11:99 12:133 13:97 14:97 15:156 16:96 17:95 18:179 19:95 20:91 21:197 22:93 23:128 24:210 25:96 26:94 27:94 28:94 29:95 30:96 31:96 32:143 33:213 34:158 35:99 36:100 37:99 38:97 39:111 40:138 41:170 42:210 43:139 44:99 45:196 46:95 47:109 48:160 49:95 50:101 51:103 52:95 53:94 54:93 55:94 56:92 57:92 58:92 59:92 60:92 61:92 62:92 63:94 64:94 65:92 
1e-07 1:155 2:108 3:105 4:154 5:104 6:103 7:130 8:106 9:102 10:143 11:105 12:106 13:135 14:103 15:109 16:106 17:101 18:109 19:146 20:113 21:116 22:151 23:154 24:148 25:188 26:172 27:140 28:112 29:128 30:153 31:145 32:119 33:107 34:102 35:176 36:156 37:101 38:104 39:104 40:103 41:101 42:94 43:95 44:127 45:94 46:95 47:191 48:95 49:98 50:165 51:94 52:98 53:102 54:90 55:97 56:97 57:92 58:94 59:114 60:93 61:129 62:101 63:92 64:174 65:104 
1e-07 1:91 2:95 3:95 4:163 5:99 6:93 7:123 8:118 9:155 10:92 11:98 12:226 13:95 14:101 15:158 16:101 17:180 18:104 19:169 20:112 21:94 22:94 23:95 24:96 25:93 26:95 27:95 28:95 29:97 30:98 31:99 32:99 33:98 34:98 35:102 36:155 37:141 38:144 39:241 40:139 41:97 42:97 43:98 44:98 45:94 46:97 47:177 48:94 49:142 50:97 51:95 52:127 53:96 54:94 55:93 56:98 57:93 58:94 59:146 60:91 61:92 62:195 63:89 64:91 65:178 
1e-07 1:95 2:101 3:106 4:99 5:97 6:156 7:169 8:142 9:117 10:95 11:185 12:159 13:149 14:156 15:195 16:177 17:115 18:168 19:112 20:205 21:168 22:210 23:171 24:132 25:99 26:98 27:100 28:99 29:117 30:183 31:162 32:117 33:103 34:107 35:150 36:161 37:111 38:104 39:103 40:101 41:102 42:101 43:111 44:162 45:95 46:161 47:108 48:95 49:150 50:103 51:95 52:137 53:111 54:94 55:129 56:145 57:97 58:144 59:100 60:98 61:106 62:102 63:104 64:101 65:98 
1e-07 1:84 2:81 3:91 4:108 5:102 6:137 7:105 8:99 9:148 10:114 11:101 12:162 13:107 14:102 15:151 16:106 17:102 18:92 19:105 20:103 21:99 22:105 23:104 24:103 25:105 26:106 27:105 28:108 29:108 30:107 31:106 32:104 33:104 34:102 35:102 36:96 37:129 38:202 39:118 40:97 41:104 42:105 43:105 44:104 45:106 46:106 47:104 48:109 49:106 50:98 51:111 52:109 53:135 54:112 55:110 56:194 57:111 58:109 59:99 60:108 61:109 62:97 63:107 64:110 65:125 
1e-07 1:91 2:78 3:70 4:106 5:99 6:91 7:103 8:96 9:89 10:103 11:97 12:91 13:102 14:159 15:90 16:160 17:153 18:90 19:132 20:115 21:130 22:121 23:170 24:155 25:104 26:111 27:110 28:103 29:103 30:104 31:122 32:167 33:158 34:106 35:97 36:97 37:97 38:96 39:94 40:93 41:94 42:144 43:106 44:101 45:134 46:102 47:118 48:122 49:103 50:99 51:121 52:104 53:96 54:161 55:103 56:98 57:193 58:102 59:98 60:165 61:102 62:98 63:123 64:106 65:99 
2.28841568776819e-08 1:105 2:111 3:112 4:105 5:112 6:100 7:101 8:112 9:100 10:134 11:105 12:102 13:219 14:99 15:143 16:143 17:98 18:206 19:96 20:100 21:153 22:98 23:100 24:100 25:101 26:100 27:101 28:101 29:203 30:166 31:97 32:99 33:100 34:108 35:204 36:145 37:95 38:101 39:101 40:100 41:100 42:99 43:98 44:138 45:103 46:99 47:190 48:173 49:113 50:98 51:122 52:135 53:97 54:100 55:168 56:95 57:100 58:178 59:95 60:99 61:139 62:95 63:100 64:103 65:202 
3.733471468932401e-08 1:109 2:109 3:102 4:95 5:138 6:102 7:93 8:218 9:100 10:103 11:141 12:101 13:225 14:102 15:101 16:107 17:103 18:100 19:102 20:101 21:101 22:102 23:101 24:101 25:98 26:190 27:165 28:96 29:130 30:212 31:218 32:172 33:117 34:99 35:102 36:104 37:100 38:99 39:98 40:97 41:96 42:239 43:221 44:153 45:103 46:195 47:199 48:96 49:104 50:221 51:94 52:98 53:202 54:94 55:96 56:161 57:96 58:94 59:123 60:95 61:92 62:98 63:124 64:91 65:96 
9.605161948771056e-08 1:199 2:96 3:89 4:106 5:93 6:96 7:93 8:93 9:97 10:93 11:93 12:96 13:92 14:93 15:94 16:91 17:92 18:93 19:103 20:94 21:93 22:142 23:94 24:97 25:91 26:91 27:92 28:91 29:91 30:86 31:151 32:202 33:105 34:97 35:95 36:94 37:95 38:96 39:96 40:96 41:97 42:222 43:154 44:100 45:100 46:209 47:101 48:94 49:188 50:113 51:94 52:122 53:133 54:93 55:97 56:162 57:93 58:97 59:179 60:91 61:97 62:188 63:91 64:95 65:194 
3.118077736892037e-08 1:89 2:99 3:96 4:121 5:122 6:87 7:189 8:100 9:87 10:137 11:98 12:119 13:192 14:98 15:121 16:138 17:96 18:172 19:163 20:96 21:139 22:92 23:98 24:97 25:102 26:195 27:147 28:131 29:199 30:190 31:114 32:91 33:93 34:108 35:178 36:113 37:84 38:113 39:134 40:80 41:80 42:94 43:91 44:124 45:95 46:93 47:152 48:141 49:92 50:203 51:214 52:94 53:125 54:141 55:100 56:97 57:93 58:107 59:154 60:95 61:114 62:89 63:103 64:119 65:78 
8.71944945727466e-08 1:91 2:95 3:223 4:91 5:94 6:100 7:92 8:95 9:102 10:91 11:96 12:93 13:91 14:98 15:107 16:95 17:117 18:149 19:143 20:180 21:205 22:208 23:201 24:184 25:140 26:166 27:188 28:194 29:200 30:189 31:174 32:159 33:143 34:122 35:109 36:155 37:226 38:147 39:99 40:94 41:96 42:107 43:107 44:103 45:102 46:104 47:171 48:104 49:105 50:174 51:102 52:111 53:101 54:100 55:131 56:96 57:99 58:144 59:90 60:77 61:127 62:85 63:68 64:92 65:85 
1e-07 1:121 2:121 3:78 4:93 5:121 6:88 7:92 8:119 9:154 10:191 11:116 12:94 13:138 14:110 15:82 16:87 17:103 18:83 19:90 20:94 21:108 22:88 23:85 24:165 25:93 26:90 27:120 28:189 29:95 30:90 31:89 32:88 33:81 34:151 35:137 36:82 37:84 38:113 39:149 40:81 41:78 42:88 43:82 44:116 45:89 46:84 47:107 48:89 49:87 50:87 51:88 52:86 53:85 54:87 55:85 56:100 57:87 58:85 59:86 60:86 61:84 62:79 63:85 64:84 65:76 
1e-07 1:101 2:99 3:97 4:103 5:98 6:93 7:96 8:95 9:94 10:96 11:96 12:99 13:97 14:94 15:90 16:97 17:92 18:167 19:98 20:177 21:153 22:164 23:143 24:111 25:96 26:97 27:99 28:97 29:94 30:96 31:142 32:169 33:160 34:173 35:168 36:204 37:99 38:91 39:96 40:211 41:179 42:119 43:168 44:127 45:114 46:123 47:126 48:126 49:93 50:198 51:125 52:93 53:97 54:96 55:90 56:97 57:95 58:91 59:98 60:93 61:90 62:126 63:94 64:89 65:105 
1e-07 1:99 2:105 3:101 4:97 5:105 6:99 7:101 8:104 9:101 10:102 11:103 12:101 13:101 14:101 15:101 16:101 17:100 18:101 19:100 20:100 21:101 22:101 23:100 24:100 25:154 26:184 27:147 28:100 29:99 30:99 31:103 32:101 33:98 34:99 35:99 36:100 37:99 38:98 39:97 40:97 41:97 42:98 43:98 44:98 45:100 46:98 47:99 48:100 49:98 50:99 51:103 52:99 53:97 54:103 55:100 56:97 57:102 58:101 59:95 60:102 61:98 62:97 63:99 64:99 65:105 
1e-07 1:93 2:87 3:96 4:91 5:137 6:120 7:92 8:135 9:125 10:91 11:196 12:93 13:88 14:106 15:96 16:105 17:85 18:97 19:84 20:109 21:91 22:113 23:192 24:141 25:84 26:84 27:88 28:91 29:91 30:87 31:93 32:175 33:184 34:184 35:172 36:107 37:96 38:106 39:137 40:156 41:211 42:135 43:175 44:163 45:106 46:152 47:154 48:88 49:165 50:89 51:88 52:100 53:161 54:85 55:85 56:106 57:86 58:100 59:98 60:89 61:123 62:85 63:90 64:122 65:84 
1e-07 1:98 2:105 3:97 4:99 5:111 6:97 7:144 8:93 9:97 10:102 11:93 12:95 13:95 14:94 15:94 16:96 17:94 18:94 19:93 20:94 21:95 22:94 23:94 24:94 25:156 26:191 27:221 28:126 29:92 30:94 31:95 32:96 33:95 34:94 35:93 36:92 37:91 38:91 39:91 40:91 41:90 42:93 43:93 44:93 45:90 46:93 47:92 48:91 49:92 50:89 51:90 52:91 53:88 54:85 55:90 56:88 57:163 58:97 59:86 60:86 61:122 62:84 63:85 64:88 65:83 
1e-07 1:97 2:97 3:96 4:99 5:99 6:97 7:102 8:103 9:99 10:100 11:120 12:94 13:128 14:96 15:91 16:92 17:93 18:97 19:97 20:92 21:121 22:105 23:126 24:149 25:95 26:92 27:92 28:92 29:91 30:91 31:91 32:121 33:145 34:111 35:110 36:120 37:138 38:149 39:105 40:95 41:96 42:114 43:126 44:126 45:94 46:94 47:91 48:96 49:93 50:91 51:95 52:94 53:119 54:94 55:94 56:101 57:94 58:114 59:95 60:94 61:121 62:97 63:92 64:111 65:96 
1e-07 1:96 2:96 3:96 4:98 5:97 6:94 7:98 8:97 9:94 10:122 11:104 12:99 13:159 14:124 15:103 16:101 17:100 18:105 19:97 20:98 21:176 22:110 23:109 24:140 25:97 26:97 27:97 28:98 29:101 30:112 31:119 32:123 33:117 34:112 35:99 36:98 37:99 38:99 39:99 40:99 41:100 42:97 43:98 44:97 45:106 46:98 47:99 48:109 49:137 50:102 51:97 52:109 53:101 54:101 55:97 56:101 57:152 58:98 59:101 60:120 61:96 62:101 63:98 64:100 65:103 
1e-07 1:89 2:148 3:109 4:91 5:109 6:134 7:91 8:92 9:105 10:91 11:94 12:92 13:91 14:94 15:96 16:91 17:93 18:95 19:87 20:93 21:93 22:92 23:94 24:103 25:91 26:90 27:90 28:91 29:92 30:93 31:93 32:94 33:95 34:102 35:104 36:99 37:94 38:92 39:93 40:95 41:114 42:93 43:95 44:93 45:91 46:92 47:91 48:91 49:90 50:89 51:92 52:90 53:135 54:90 55:89 56:92 57:93 58:89 59:93 60:110 61:89 62:92 63:89 64:88 65:92 
1e-07 1:119 2:105 3:103 4:104 5:97 6:100 7:101 8:96 9:98 10:103 11:97 12:96 13:115 14:97 15:96 16:102 17:96 18:96 19:98 20:96 21:93 22:97 23:95 24:94 25:130 26:129 27:175 28:137 29:116 30:106 31:99 32:95 33:94 34:94 35:95 36:96 37:97 38:97 39:97 40:97 41:98 42:120 43:115 44:109 45:93 46:100 47:106 48:97 49:92 50:94 51:114 52:92 53:94 54:163 55:89 56:92 57:96 58:90 59:90 60:92 61:91 62:89 63:92 64:90 65:89 
1e-07 1:100 2:98 3:97 4:100 5:97 6:95 7:97 8:107 9:99 10:96 11:110 12:114 13:164 14:99 15:179 16:133 17:96 18:98 19:173 20:99 21:99 22:102 23:101 24:101 25:94 26:97 27:97 28:98 29:94 30:144 31:201 32:108 33:102 34:101 35:101 36:93 37:162 38:201 39:103 40:98 41:100 42:118 43:100 44:100 45:158 46:98 47:99 48:96 49:96 50:98 51:96 52:94 53:93 54:95 55:93 56:132 57:93 58:93 59:115 60:95 61:91 62:88 63:93 64:114 65:92 
9.349381122748097e-08 1:98 2:104 3:107 4:95 5:104 6:106 7:149 8:104 9:105 10:98 11:128 12:102 13:160 14:179 15:101 16:104 17:202 18:102 19:101 20:210 21:100 22:123 23:213 24:135 25:111 26:147 27:142 28:126 29:102 30:97 31:92 32:133 33:219 34:116 35:97 36:96 37:97 38:97 39:98 40:99 41:101 42:151 43:206 44:106 45:92 46:134 47:96 48:93 49:90 50:95 51:91 52:90 53:97 54:87 55:88 56:98 57:125 58:98 59:99 60:106 61:131 62:101 63:92 64:86 65:98 
1e-07 1:92 2:89 3:132 4:90 5:87 6:138 7:88 8:84 9:108 10:86 11:85 12:115 13:85 14:86 15:109 16:84 17:84 18:94 19:83 20:84 21:91 22:82 23:84 24:87 25:83 26:81 27:81 28:83 29:84 30:84 31:84 32:84 33:84 34:85 35:87 36:92 37:116 38:145 39:186 40:187 41:144 42:82 43:84 44:86 45:83 46:83 47:124 48:85 49:84 50:186 51:86 52:93 53:212 54:88 55:161 56:94 57:90 58:97 59:96 60:92 61:93 62:94 63:85 64:94 65:92 
1e-07 1:113 2:89 3:98 4:92 5:91 6:96 7:116 8:93 9:95 10:114 11:96 12:95 13:95 14:93 15:93 16:92 17:92 18:92 19:90 20:92 21:93 22:91 23:92 24:90 25:107 26:88 27:89 28:101 29:117 30:104 31:101 32:103 33:92 34:88 35:87 36:88 37:87 38:87 39:87 40:87 41:88 42:193 43:144 44:88 45:177 46:111 47:86 48:176 49:86 50:89 51:203 52:91 53:88 54:150 55:92 56:90 57:98 58:172 59:82 60:94 61:134 62:83 63:92 64:82 65:82 
1e-07 1:95 2:97 3:109 4:95 5:95 6:136 7:95 8:97 9:110 10:94 11:98 12:97 13:93 14:95 15:99 16:113 17:95 18:95 19:177 20:95 21:94 22:107 23:95 24:93 25:96 26:96 27:96 28:92 29:92 30:140 31:172 32:104 33:94 34:92 35:92 36:98 37:101 38:101 39:115 40:149 41:164 42:102 43:93 44:92 45:164 46:93 47:95 48:154 49:92 50:101 51:93 52:96 53:103 54:92 55:103 56:97 57:96 58:104 59:97 60:106 61:99 62:161 63:103 64:98 65:112 
1e-07 1:115 2:159 3:105 4:152 5:119 6:100 7:101 8:100 9:100 10:187 11:152 12:102 13:210 14:107 15:104 16:110 17:138 18:105 19:105 20:124 21:154 22:170 23:173 24:173 25:163 26:161 27:165 28:154 29:151 30:146 31:138 32:132 33:125 34:120 35:116 36:110 37:105 38:102 39:99 40:98 41:99 42:99 43:99 44:100 45:101 46:99 47:101 48:119 49:100 50:98 51:200 52:108 53:95 54:148 55:93 56:92 57:106 58:131 59:92 60:90 61:189 62:92 63:92 64:159 65:90 
1e-07 1:106 2:97 3:94 4:104 5:92 6:94 7:101 8:93 9:92 10:93 11:91 12:91 13:90 14:91 15:90 16:100 17:93 18:91 19:160 20:94 21:91 22:166 23:96 24:89 25:90 26:89 27:89 28:88 29:87 30:98 31:165 32:176 33:101 34:89 35:89 36:89 37:89 38:85 39:162 40:225 41:103 42:178 43:102 44:94 45:178 46:126 47:166 48:108 49:115 50:90 51:94 52:119 53:152 54:93 55:130 56:211 57:93 58:88 59:100 60:88 61:88 62:94 63:81 64:91 65:90 
1e-07 1:92 2:141 3:92 4:89 5:129 6:94 7:135 8:126 9:94 10:97 11:120 12:94 13:93 14:103 15:96 16:147 17:98 18:95 19:123 20:96 21:93 22:132 23:134 24:114 25:92 26:95 27:115 28:142 29:157 30:156 31:164 32:155 33:135 34:133 35:151 36:108 37:89 38:90 39:90 40:90 41:90 42:104 43:96 44:96 45:93 46:136 47:86 48:94 49:115 50:182 51:110 52:92 53:156 54:123 55:93 56:91 57:121 58:91 59:88 60:88 61:91 62:87 63:90 64:91 65:83 
1e-07 1:98 2:158 3:178 4:96 5:136 6:161 7:95 8:103 9:207 10:102 11:107 12:210 13:109 14:109 15:180 16:114 17:116 18:153 19:112 20:120 21:116 22:112 23:112 24:113 25:110 26:109 27:109 28:112 29:112 30:113 31:112 32:111 33:112 34:111 35:111 36:114 37:123 38:131 39:134 40:141 41:148 42:112 43:121 44:140 45:112 46:149 47:172 48:124 49:171 50:164 51:173 52:129 53:106 54:201 55:102 56:137 57:158 58:124 59:104 60:110 61:137 62:97 63:95 64:98 65:100 
1e-07 1:181 2:118 3:105 4:159 5:103 6:115 7:149 8:113 9:113 10:138 11:110 12:108 13:130 14:109 15:104 16:139 17:110 18:106 19:107 20:112 21:111 22:111 23:109 24:109 25:153 26:156 27:159 28:162 29:159 30:155 31:135 32:111 33:107 34:107 35:107 36:107 37:108 38:107 39:105 40:103 41:101 42:120 43:112 44:108 45:151 46:124 47:124 48:145 49:150 50:117 51:131 52:157 53:93 54:97 55:208 56:97 57:113 58:225 59:101 60:97 61:205 62:102 63:101 64:149 65:102 
1e-07 1:98 2:101 3:100 4:94 5:123 6:100 7:114 8:149 9:97 10:108 11:147 12:104 13:132 14:119 15:132 16:174 17:134 18:139 19:197 20:101 21:93 22:118 23:82 24:86 25:81 26:83 27:85 28:90 29:90 30:83 31:127 32:127 33:84 34:86 35:89 36:95 37:97 38:100 39:107 40:100 41:101 42:79 43:81 44:108 45:122 46:129 47:183 48:103 49:98 50:90 51:84 52:80 53:152 54:84 55:88 56:85 57:84 58:131 59:85 60:85 61:97 62:85 63:86 64:84 65:86 
1e-07 1:100 2:106 3:99 4:100 5:107 6:110 7:103 8:140 9:167 10:140 11:114 12:109 13:103 14:118 15:94 16:92 17:123 18:94 19:135 20:126 21:145 22:144 23:137 24:141 25:109 26:108 27:101 28:97 29:109 30:147 31:139 32:88 33:88 34:86 35:89 36:94 37:103 38:111 39:122 40:124 41:109 42:116 43:89 44:90 45:163 46:103 47:98 48:131 49:166 50:124 51:155 52:169 53:120 54:83 55:94 56:144 57:84 58:91 59:86 60:84 61:149 62:72 63:87 64:87 65:67 
1e-07 1:88 2:130 3:87 4:91 5:122 6:86 7:202 8:131 9:85 10:218 11:143 12:86 13:117 14:80 15:86 16:111 17:109 18:85 19:100 20:96 21:91 22:84 23:84 24:83 25:163 26:155 27:152 28:180 29:169 30:139 31:127 32:113 33:108 34:100 35:96 36:91 37:83 38:82 39:83 40:84 41:84 42:93 43:92 44:91 45:85 46:87 47:96 48:86 49:86 50:82 51:81 52:80 53:81 54:85 55:80 56:79 57:82 58:79 59:80 60:112 61:79 62:78 63:98 64:78 65:78 
1e-07 1:162 2:89 3:107 4:75 5:86 6:108 7:81 8:83 9:93 10:98 11:102 12:135 13:199 14:118 15:176 16:127 17:144 18:139 19:109 20:111 21:181 22:81 23:90 24:178 25:76 26:78 27:81 28:90 29:153 30:123 31:79 32:81 33:82 34:98 35:152 36:113 37:86 38:83 39:87 40:145 41:139 42:82 43:83 44:84 45:76 46:75 47:91 48:75 49:76 50:110 51:98 52:122 53:131 54:78 55:90 56:82 57:79 58:78 59:77 60:80 61:80 62:86 63:80 64:83 65:117 
1e-07 1:103 2:79 3:78 4:100 5:79 6:78 7:105 8:86 9:81 10:98 11:91 12:81 13:123 14:94 15:113 16:136 17:149 18:124 19:95 20:172 21:92 22:131 23:115 24:89 25:114 26:135 27:143 28:145 29:151 30:142 31:135 32:128 33:114 34:113 35:108 36:102 37:100 38:94 39:88 40:83 41:81 42:88 43:91 44:94 45:91 46:72 47:72 48:117 49:93 50:84 51:121 52:110 53:81 54:91 55:76 56:79 57:149 58:78 59:79 60:141 61:80 62:81 63:110 64:85 65:84 
1e-07 1:95 2:99 3:107 4:92 5:99 6:133 7:95 8:98 9:98 10:94 11:104 12:130 13:133 14:142 15:128 16:104 17:95 18:94 19:94 20:95 21:96 22:94 23:95 24:95 25:93 26:92 27:92 28:92 29:93 30:93 31:93 32:94 33:93 34:91 35:92 36:96 37:106 38:117 39:122 40:126 41:129 42:93 43:106 44:175 45:95 46:116 47:126 48:91 49:117 50:148 51:89 52:111 53:157 54:89 55:169 56:128 57:89 58:145 59:128 60:91 61:135 62:97 63:91 64:87 65:88 
1e-07 1:108 2:100 3:98 4:130 5:99 6:96 7:99 8:103 9:97 10:142 11:138 12:98 13:100 14:94 15:100 16:93 17:96 18:95 19:95 20:95 21:96 22:95 23:95 24:95 25:130 26:125 27:109 28:93 29:95 30:94 31:95 32:95 33:95 34:93 35:92 36:92 37:92 38:92 39:92 40:93 41:93 42:92 43:92 44:92 45:91 46:91 47:91 48:90 49:90 50:91 51:87 52:91 53:93 54:147 55:91 56:92 57:120 58:91 59:91 60:88 61:90 62:93 63:88 64:91 65:94 
1e-07 1:90 2:87 3:83 4:89 5:112 6:95 7:93 8:122 9:135 10:84 11:156 12:164 13:155 14:100 15:164 16:188 17:90 18:184 19:140 20:121 21:154 22:133 23:142 24:103 25:84 26:85 27:84 28:83 29:84 30:84 31:89 32:93 33:88 34:89 35:85 36:139 37:165 38:88 39:81 40:82 41:84 42:85 43:89 44:90 45:97 46:87 47:95 48:114 49:93 50:165 51:93 52:152 53:93 54:82 55:135 56:89 57:82 58:176 59:76 60:82 61:123 62:81 63:84 64:84 65:81 
1e-07 1:90 2:89 3:92 4:129 5:90 6:91 7:136 8:98 9:89 10:140 11:92 12:88 13:139 14:89 15:89 16:90 17:86 18:88 19:126 20:109 21:97 22:98 23:100 24:105 25:80 26:82 27:83 28:80 29:82 30:96 31:102 32:100 33:101 34:99 35:94 36:82 37:82 38:84 39:88 40:88 41:88 42:113 43:102 44:101 45:152 46:113 47:88 48:176 49:92 50:119 51:101 52:131 53:178 54:95 55:104 56:184 57:83 58:86 59:127 60:84 61:84 62:85 63:83 64:85 65:85 
1e-07 1:98 2:94 3:100 4:94 5:101 6:135 7:111 8:145 9:132 10:127 11:201 12:116 13:200 14:212 15:129 16:156 17:191 18:156 19:111 20:134 21:117 22:178 23:156 24:140 25:95 26:95 27:95 28:95 29:94 30:92 31:93 32:104 33:129 34:114 35:91 36:130 37:148 38:148 39:159 40:173 41:178 42:86 43:84 44:91 45:90 46:110 47:161 48:92 49:90 50:172 51:89 52:87 53:83 54:87 55:87 56:87 57:87 58:88 59:140 60:88 61:88 62:136 63:87 64:89 65:149 
1e-07 1:103 2:131 3:91 4:118 5:127 6:99 7:119 8:165 9:110 10:190 11:164 12:99 13:161 14:163 15:86 16:126 17:147 18:134 19:137 20:101 21:93 22:89 23:86 24:86 25:169 26:145 27:123 28:109 29:87 30:83 31:83 32:84 33:84 34:94 35:139 36:113 37:88 38:88 39:88 40:88 41:88 42:85 43:85 44:99 45:88 46:86 47:87 48:85 49:86 50:91 51:86 52:89 53:101 54:87 55:96 56:101 57:146 58:99 59:98 60:156 61:98 62:97 63:144 64:97 65:97 
1e-07 1:87 2:91 3:133 4:85 5:149 6:136 7:85 8:93 9:94 10:86 11:88 12:94 13:86 14:91 15:97 16:91 17:88 18:95 19:117 20:127 21:137 22:106 23:100 24:97 25:85 26:84 27:84 28:84 29:85 30:84 31:86 32:94 33:118 34:149 35:161 36:138 37:104 38:87 39:87 40:87 41:85 42:140 43:138 44:111 45:96 46:94 47:129 48:93 49:97 50:105 51:139 52:151 53:149 54:91 55:94 56:95 57:92 58:98 59:136 60:95 61:91 62:105 63:93 64:84 65:82 
1e-07 1:134 2:102 3:98 4:104 5:96 6:97 7:95 8:97 9:97 10:123 11:97 12:95 13:95 14:96 15:93 16:117 17:99 18:93 19:92 20:92 21:91 22:85 23:84 24:86 25:81 26:81 27:88 28:106 29:126 30:144 31:153 32:149 33:137 34:123 35:107 36:96 37:92 38:88 39:86 40:85 41:85 42:100 43:112 44:123 45:80 46:76 47:77 48:110 49:101 50:95 51:108 52:100 53:87 54:83 55:89 56:81 57:88 58:92 59:88 60:121 61:117 62:90 63:82 64:102 65:93 
1e-07 1:108 2:116 3:110 4:109 5:143 6:114 7:107 8:118 9:140 10:104 11:113 12:111 13:151 14:114 15:126 16:152 17:125 18:123 19:108 20:109 21:109 22:108 23:108 24:110 25:113 26:113 27:114 28:114 29:115 30:119 31:122 32:124 33:130 34:136 35:142 36:146 37:147 38:151 39:147 40:122 41:106 42:127 43:125 44:121 45:170 46:153 47:155 48:155 49:153 50:126 51:110 52:170 53:163 54:177 55:152 56:149 57:140 58:147 59:167 60:131 61:144 62:98 63:128 64:94 65:102 
1e-07 1:107 2:104 3:107 4:110 5:105 6:103 7:113 8:107 9:104 10:124 11:110 12:106 13:169 14:110 15:106 16:128 17:113 18:112 19:114 20:115 21:115 22:110 23:110 24:110 25:107 26:104 27:104 28:104 29:103 30:104 31:106 32:107 33:108 34:108 35:108 36:109 37:108 38:108 39:108 40:108 41:108 42:110 43:110 44:110 45:107 46:106 47:106 48:102 49:102 50:104 51:98 52:99 53:104 54:131 55:128 56:103 57:138 58:121 59:98 60:94 61:96 62:94 63:110 64:96 65:94 
1e-07 1:95 2:127 3:166 4:120 5:155 6:95 7:135 8:92 9:94 10:92 11:98 12:113 13:92 14:97 15:199 16:94 17:91 18:90 19:100 20:119 21:137 22:146 23:143 24:141 25:91 26:89 27:91 28:98 29:98 30:94 31:106 32:124 33:146 34:164 35:183 36:211 37:152 38:115 39:109 40:111 41:122 42:102 43:105 44:105 45:116 46:147 47:131 48:141 49:101 50:162 51:107 52:152 53:103 54:92 55:152 56:131 57:94 58:99 59:146 60:98 61:98 62:121 63:98 64:96 65:117 
1e-07 1:154 2:93 3:93 4:90 5:91 6:93 7:95 8:92 9:92 10:131 11:94 12:94 13:101 14:92 15:95 16:103 17:94 18:93 19:104 20:96 21:93 22:91 23:91 24:93 25:133 26:138 27:138 28:141 29:141 30:136 31:142 32:151 33:117 34:92 35:92 36:92 37:91 38:90 39:90 40:89 41:89 42:145 43:117 44:92 45:115 46:90 47:91 48:111 49:92 50:92 51:142 52:119 53:91 54:148 55:91 56:91 57:133 58:115 59:127 60:184 61:138 62:97 63:122 64:88 65:90 
1e-07 1:41 2:42 3:43 4:41 5:40 6:40 7:60 8:60 9:76 10:169 11:107 12:193 13:110 14:104 15:104 16:105 17:104 18:104 19:106 20:103 21:105 22:107 23:104 24:104 25:104 26:104 27:105 28:106 29:108 30:172 31:131 32:105 33:106 34:104 35:105 36:106 37:107 38:183 39:125 40:131 41:201 42:104 43:105 44:104 45:177 46:105 47:104 48:115 49:104 50:104 51:103 52:104 53:127 54:102 55:105 56:163 57:100 58:104 59:102 60:100 61:103 62:108 63:100 64:101 65:150 
1e-07 1:44 2:42 3:42 4:42 5:41 6:40 7:63 8:63 9:61 10:113 11:111 12:108 13:124 14:106 15:106 16:202 17:106 18:105 19:172 20:106 21:105 22:113 23:106 24:105 25:110 26:106 27:108 28:108 29:107 30:121 31:215 32:143 33:106 34:104 35:102 36:102 37:102 38:102 39:103 40:103 41:103 42:192 43:106 44:103 45:144 46:126 47:100 48:108 49:184 50:100 51:113 52:229 53:100 54:118 55:198 56:98 57:199 58:134 59:98 60:106 61:107 62:98 63:174 64:106 65:97 
1e-07 1:100 2:97 3:106 4:100 5:97 6:100 7:100 8:96 9:96 10:102 11:96 12:106 13:103 14:95 15:97 16:100 17:96 18:98 19:94 20:96 21:100 22:95 23:95 24:98 25:98 26:97 27:98 28:97 29:98 30:97 31:96 32:96 33:97 34:98 35:99 36:99 37:97 38:97 39:98 40:97 41:98 42:97 43:97 44:98 45:96 46:95 47:143 48:97 49:96 50:164 51:98 52:95 53:98 54:96 55:93 56:100 57:96 58:92 59:209 60:96 61:104 62:117 63:96 64:195 65:98 
1e-07 1:108 2:103 3:100 4:101 5:99 6:98 7:102 8:99 9:174 10:102 11:99 12:105 13:98 14:99 15:99 16:97 17:97 18:97 19:97 20:96 21:96 22:97 23:95 24:95 25:98 26:97 27:97 28:94 29:95 30:97 31:99 32:98 33:96 34:96 35:97 36:100 37:97 38:96 39:96 40:96 41:97 42:97 43:96 44:97 45:97 46:95 47:96 48:97 49:96 50:96 51:98 52:96 53:97 54:97 55:96 56:97 57:113 58:96 59:96 60:96 61:96 62:95 63:99 64:94 65:97 
1e-07 1:85 2:86 3:90 4:88 5:86 6:89 7:86 8:89 9:101 10:84 11:102 12:126 13:85 14:136 15:90 16:86 17:149 18:93 19:91 20:141 21:87 22:85 23:118 24:127 25:83 26:84 27:84 28:84 29:84 30:85 31:85 32:87 33:94 34:119 35:132 36:126 37:113 38:117 39:111 40:109 41:98 42:87 43:85 44:97 45:84 46:86 47:91 48:83 49:85 50:92 51:82 52:91 53:135 54:82 55:133 56:164 57:82 58:112 59:86 60:82 61:79 62:111 63:81 64:83 65:85 
1e-07 1:89 2:88 3:86 4:88 5:88 6:86 7:88 8:88 9:87 10:87 11:88 12:89 13:88 14:87 15:87 16:87 17:87 18:88 19:86 20:86 21:86 22:84 23:84 24:84 25:112 26:115 27:88 28:82 29:85 30:84 31:84 32:84 33:84 34:84 35:84 36:84 37:84 38:85 39:85 40:85 41:85 42:84 43:84 44:84 45:84 46:84 47:84 48:84 49:84 50:84 51:85 52:84 53:84 54:86 55:84 56:85 57:86 58:84 59:85 60:83 61:85 62:84 63:83 64:85 65:85 
1e-07 1:82 2:104 3:81 4:84 5:94 6:83 7:84 8:81 9:84 10:85 11:82 12:85 13:84 14:81 15:97 16:84 17:82 18:114 19:83 20:81 21:127 22:86 23:109 24:116 25:82 26:82 27:83 28:84 29:84 30:84 31:90 32:112 33:103 34:81 35:80 36:83 37:95 38:119 39:124 40:108 41:91 42:92 43:82 44:83 45:89 46:82 47:83 48:88 49:81 50:80 51:81 52:80 53:77 54:80 55:78 56:77 57:80 58:78 59:78 60:81 61:78 62:77 63:80 64:78 65:78 
1e-07 1:82 2:83 3:87 4:82 5:82 6:88 7:81 8:82 9:87 10:81 11:82 12:89 13:81 14:82 15:87 16:81 17:82 18:88 19:81 20:82 21:87 22:83 23:84 24:86 25:83 26:82 27:84 28:84 29:84 30:83 31:83 32:84 33:84 34:86 35:88 36:89 37:89 38:89 39:89 40:89 41:89 42:83 43:85 44:86 45:88 46:82 47:84 48:102 49:97 50:88 51:82 52:93 53:97 54:85 55:83 56:87 57:84 58:84 59:85 60:82 61:84 62:87 63:79 64:84 65:87 
1e-07 1:101 2:71 3:41 4:108 5:103 6:73 7:105 8:102 9:113 10:101 11:103 12:127 13:114 14:103 15:99 16:182 17:102 18:106 19:136 20:136 21:102 22:101 23:102 24:99 25:95 26:95 27:95 28:94 29:96 30:170 31:152 32:97 33:100 34:101 35:99 36:98 37:96 38:96 39:100 40:102 41:104 42:97 43:98 44:95 45:174 46:94 47:90 48:148 49:93 50:92 51:88 52:93 53:89 54:91 55:91 56:93 57:92 58:93 59:145 60:88 61:91 62:118 63:89 64:90 65:168 
1e-07 1:42 2:42 3:37 4:73 5:65 6:58 7:110 8:105 9:96 10:114 11:94 12:97 13:104 14:124 15:93 16:98 17:163 18:92 19:94 20:101 21:140 22:95 23:94 24:91 25:105 26:105 27:105 28:105 29:104 30:104 31:101 32:95 33:88 34:90 35:96 36:97 37:90 38:88 39:89 40:91 41:93 42:148 43:147 44:95 45:102 46:158 47:90 48:119 49:89 50:89 51:112 52:85 53:89 54:136 55:129 56:88 57:139 58:132 59:90 60:104 61:164 62:87 63:100 64:165 65:93 
1e-07 1:86 2:92 3:162 4:87 5:90 6:144 7:94 8:87 9:103 10:93 11:90 12:103 13:93 14:100 15:124 16:93 17:115 18:122 19:110 20:143 21:106 22:185 23:119 24:88 25:84 26:88 27:91 28:92 29:92 30:90 31:91 32:99 33:89 34:92 35:94 36:93 37:89 38:86 39:85 40:84 41:81 42:84 43:86 44:87 45:84 46:84 47:86 48:85 49:84 50:82 51:88 52:85 53:159 54:86 55:86 56:143 57:86 58:91 59:151 60:87 61:89 62:100 63:88 64:93 65:97 
1e-07 1:140 2:107 3:100 4:84 5:107 6:97 7:109 8:82 9:96 10:117 11:122 12:181 13:92 14:90 15:90 16:97 17:83 18:88 19:102 20:83 21:83 22:80 23:82 24:84 25:83 26:84 27:83 28:92 29:111 30:106 31:111 32:142 33:130 34:86 35:87 36:88 37:94 38:119 39:113 40:88 41:90 42:147 43:119 44:94 45:158 46:153 47:86 48:157 49:143 50:86 51:173 52:88 53:84 54:175 55:128 56:86 57:170 58:140 59:128 60:206 61:90 62:96 63:114 64:87 65:95 
1e-07 1:96 2:94 3:86 4:100 5:50 6:42 7:74 8:39 9:44 10:38 11:41 12:41 13:37 14:42 15:53 16:57 17:51 18:42 19:92 20:75 21:61 22:96 23:96 24:97 25:100 26:100 27:99 28:99 29:100 30:101 31:102 32:99 33:103 34:138 35:151 36:116 37:102 38:100 39:100 40:105 41:140 42:114 43:160 44:148 45:120 46:147 47:101 48:132 49:102 50:104 51:127 52:107 53:127 54:103 55:107 56:94 57:103 58:105 59:124 60:102 61:106 62:98 63:102 64:107 65:107 
1e-07 1:85 2:81 3:84 4:45 5:52 6:39 7:47 8:42 9:39 10:51 11:40 12:40 13:39 14:44 15:45 16:46 17:52 18:53 19:120 20:69 21:78 22:125 23:127 24:126 25:153 26:156 27:172 28:188 29:171 30:130 31:116 32:114 33:114 34:112 35:109 36:105 37:103 38:102 39:101 40:99 41:98 42:102 43:109 44:114 45:93 46:92 47:94 48:92 49:91 50:94 51:91 52:103 53:96 54:126 55:122 56:94 57:105 58:121 59:89 60:101 61:109 62:88 63:117 64:90 65:91 
1e-07 1:101 2:107 3:114 4:101 5:120 6:122 7:102 8:164 9:88 10:99 11:119 12:80 13:117 14:99 15:80 16:114 17:90 18:83 19:102 20:92 21:87 22:90 23:88 24:87 25:107 26:105 27:100 28:95 29:92 30:91 31:89 32:88 33:90 34:94 35:97 36:100 37:103 38:107 39:109 40:111 41:111 42:106 43:119 44:122 45:94 46:94 47:90 48:93 49:92 50:91 51:90 52:91 53:114 54:89 55:91 56:96 57:88 58:93 59:89 60:88 61:92 62:90 63:88 64:93 65:93 
1e-07 1:118 2:122 3:96 4:146 5:151 6:91 7:86 8:138 9:122 10:105 11:101 12:97 13:102 14:94 15:90 16:92 17:94 18:95 19:93 20:136 21:99 22:130 23:179 24:127 25:111 26:111 27:111 28:114 29:124 30:139 31:140 32:122 33:170 34:145 35:111 36:108 37:103 38:98 39:96 40:94 41:95 42:99 43:139 44:158 45:95 46:118 47:101 48:94 49:100 50:92 51:96 52:103 53:113 54:116 55:111 56:101 57:93 58:91 59:88 60:91 61:92 62:87 63:93 64:88 65:88 
1e-07 1:99 2:99 3:100 4:97 5:99 6:99 7:99 8:97 9:105 10:106 11:127 12:166 13:171 14:171 15:127 16:109 17:100 18:100 19:100 20:100 21:102 22:102 23:102 24:102 25:94 26:94 27:95 28:96 29:98 30:102 31:103 32:103 33:103 34:104 35:104 36:103 37:100 38:100 39:99 40:97 41:96 42:99 43:100 44:102 45:95 46:96 47:99 48:97 49:100 50:97 51:94 52:92 53:96 54:95 55:107 56:96 57:95 58:166 59:98 60:95 61:116 62:117 63:96 64:94 65:159 
1e-07 1:101 2:101 3:94 4:98 5:105 6:95 7:149 8:177 9:102 10:149 11:117 12:130 13:99 14:99 15:93 16:103 17:98 18:96 19:96 20:95 21:93 22:95 23:94 24:93 25:96 26:95 27:95 28:95 29:95 30:95 31:95 32:93 33:89 34:89 35:89 36:91 37:94 38:95 39:94 40:94 41:94 42:93 43:90 44:90 45:94 46:92 47:92 48:93 49:95 50:93 51:103 52:96 53:86 54:98 55:93 56:90 57:95 58:89 59:93 60:155 61:90 62:92 63:148 64:92 65:94 
1e-07 1:94 2:175 3:134 4:91 5:106 6:177 7:94 8:88 9:136 10:91 11:93 12:99 13:90 14:97 15:165 16:89 17:101 18:132 19:86 20:90 21:122 22:93 23:104 24:125 25:92 26:92 27:91 28:94 29:106 30:134 31:154 32:171 33:179 34:171 35:156 36:142 37:121 38:108 39:115 40:187 41:194 42:107 43:95 44:88 45:86 46:88 47:84 48:85 49:92 50:85 51:85 52:90 53:85 54:86 55:86 56:85 57:84 58:86 59:85 60:85 61:85 62:95 63:88 64:83 65:120 
1e-07 1:127 2:93 3:93 4:84 5:90 6:87 7:93 8:89 9:84 10:177 11:89 12:87 13:116 14:90 15:90 16:95 17:92 18:90 19:175 20:92 21:92 22:109 23:90 24:90 25:106 26:86 27:86 28:83 29:81 30:82 31:83 32:85 33:89 34:89 35:88 36:86 37:86 38:85 39:82 40:81 41:81 42:86 43:87 44:87 45:85 46:85 47:85 48:86 49:86 50:86 51:86 52:86 53:86 54:85 55:86 56:86 57:83 58:86 59:86 60:144 61:86 62:84 63:207 64:84 65:87 
1e-07 1:90 2:89 3:121 4:90 5:105 6:103 7:90 8:95 9:102 10:89 11:88 12:134 13:89 14:88 15:179 16:88 17:117 18:105 19:90 20:99 21:94 22:91 23:95 24:96 25:89 26:89 27:88 28:88 29:88 30:89 31:90 32:94 33:94 34:95 35:95 36:94 37:94 38:95 39:95 40:96 41:95 42:102 43:106 44:95 45:131 46:133 47:92 48:126 49:115 50:87 51:110 52:130 53:87 54:89 55:94 56:91 57:85 58:118 59:106 60:85 61:148 62:93 63:86 64:112 65:93 
1e-07 1:106 2:101 3:103 4:100 5:101 6:102 7:99 8:100 9:99 10:96 11:97 12:97 13:96 14:96 15:97 16:99 17:96 18:97 19:109 20:95 21:95 22:96 23:93 24:94 25:94 26:94 27:95 28:95 29:94 30:93 31:93 32:93 33:93 34:94 35:95 36:96 37:96 38:96 39:96 40:95 41:95 42:93 43:93 44:95 45:91 46:95 47:97 48:138 49:95 50:96 51:187 52:95 53:95 54:96 55:96 56:95 57:93 58:95 59:93 60:101 61:95 62:92 63:91 64:96 65:92 
1e-07 1:88 2:91 3:91 4:86 5:91 6:92 7:90 8:95 9:97 10:91 11:125 12:163 13:135 14:149 15:107 16:192 17:161 18:90 19:159 20:185 21:134 22:122 23:180 24:118 25:88 26:88 27:90 28:92 29:92 30:139 31:139 32:113 33:178 34:115 35:91 36:89 37:102 38:188 39:151 40:92 41:92 42:110 43:183 44:116 45:91 46:105 47:90 48:90 49:87 50:108 51:89 52:91 53:164 54:87 55:90 56:156 57:87 58:89 59:93 60:87 61:88 62:88 63:88 64:87 65:88 
1e-07 1:89 2:98 3:98 4:99 5:95 6:93 7:147 8:92 9:93 10:91 11:94 12:95 13:92 14:93 15:93 16:93 17:94 18:92 19:116 20:102 21:93 22:97 23:96 24:93 25:88 26:124 27:186 28:108 29:90 30:92 31:92 32:93 33:94 34:92 35:91 36:91 37:92 38:91 39:90 40:91 41:91 42:92 43:93 44:91 45:91 46:93 47:91 48:89 49:91 50:89 51:89 52:90 53:89 54:88 55:88 56:88 57:88 58:88 59:88 60:89 61:87 62:87 63:88 64:88 65:88 
1e-07 1:99 2:94 3:96 4:96 5:96 6:111 7:95 8:99 9:120 10:95 11:96 12:100 13:93 14:97 15:135 16:95 17:96 18:124 19:97 20:95 21:129 22:96 23:110 24:169 25:90 26:90 27:91 28:92 29:93 30:93 31:94 32:91 33:109 34:159 35:118 36:93 37:103 38:135 39:133 40:120 41:105 42:92 43:91 44:89 45:91 46:93 47:93 48:91 49:93 50:94 51:92 52:94 53:111 54:92 55:94 56:116 57:97 58:108 59:144 60:90 61:122 62:169 63:93 64:92 65:152 
1e-07 1:96 2:99 3:97 4:106 5:97 6:97 7:101 8:96 9:97 10:99 11:95 12:96 13:102 14:94 15:96 16:100 17:94 18:96 19:95 20:93 21:181 22:96 23:93 24:131 25:95 26:93 27:92 28:93 29:94 30:94 31:95 32:95 33:94 34:108 35:190 36:167 37:97 38:96 39:96 40:96 41:96 42:98 43:98 44:100 45:98 46:97 47:139 48:96 49:118 50:108 51:98 52:145 53:93 54:181 55:175 56:114 57:131 58:192 59:113 60:90 61:197 62:95 63:96 64:185 65:96 
1e-07 1:92 2:94 3:108 4:89 5:96 6:93 7:89 8:95 9:90 10:89 11:95 12:91 13:92 14:92 15:92 16:93 17:91 18:91 19:92 20:90 21:92 22:95 23:95 24:95 25:91 26:94 27:90 28:125 29:145 30:96 31:95 32:94 33:95 34:105 35:107 36:111 37:114 38:117 39:113 40:104 41:99 42:88 43:89 44:91 45:87 46:87 47:87 48:117 49:83 50:83 51:132 52:88 53:85 54:84 55:90 56:86 57:85 58:88 59:103 60:83 61:85 62:83 63:83 64:83 65:85 
1e-07 1:94 2:156 3:96 4:95 5:113 6:97 7:92 8:87 9:96 10:87 11:89 12:96 13:88 14:87 15:94 16:95 17:88 18:90 19:101 20:88 21:90 22:94 23:89 24:89 25:133 26:174 27:120 28:117 29:115 30:112 31:116 32:110 33:91 34:90 35:91 36:91 37:92 38:92 39:93 40:94 41:95 42:91 43:89 44:88 45:140 46:90 47:87 48:119 49:89 50:88 51:134 52:88 53:89 54:119 55:86 56:87 57:141 58:85 59:87 60:126 61:87 62:91 63:105 64:89 65:91 
1e-07 1:103 2:97 3:92 4:101 5:95 6:91 7:98 8:102 9:134 10:95 11:114 12:116 13:93 14:91 15:89 16:90 17:91 18:92 19:90 20:92 21:92 22:91 23:92 24:92 25:92 26:92 27:91 28:91 29:90 30:90 31:91 32:93 33:94 34:92 35:111 36:148 37:102 38:89 39:90 40:90 41:89 42:92 43:95 44:94 45:93 46:93 47:90 48:94 49:93 50:91 51:94 52:93 53:89 54:94 55:91 56:94 57:94 58:89 59:94 60:94 61:89 62:91 63:93 64:107 65:115 
1e-07 1:92 2:95 3:96 4:94 5:94 6:96 7:156 8:93 9:96 10:120 11:94 12:96 13:95 14:92 15:92 16:92 17:92 18:92 19:89 20:92 21:92 22:118 23:112 24:103 25:136 26:169 27:135 28:136 29:128 30:120 31:109 32:98 33:94 34:93 35:93 36:94 37:94 38:95 39:95 40:95 41:95 42:88 43:93 44:94 45:143 46:99 47:95 48:108 49:97 50:97 51:93 52:94 53:98 54:95 55:97 56:92 57:94 58:97 59:89 60:176 61:97 62:87 63:164 64:97 65:89 
1e-07 1:95 2:179 3:142 4:95 5:186 6:150 7:116 8:146 9:193 10:147 11:125 12:106 13:153 14:130 15:94 16:93 17:106 18:93 19:90 20:89 21:91 22:90 23:93 24:94 25:93 26:92 27:91 28:88 29:87 30:87 31:88 32:90 33:91 34:91 35:92 36:88 37:138 38:124 39:86 40:87 41:88 42:91 43:89 44:89 45:92 46:91 47:92 48:85 49:91 50:87 51:85 52:92 53:137 54:89 55:94 56:130 57:89 58:92 59:84 60:88 61:87 62:90 63:88 64:86 65:86 
1e-07 1:126 2:123 3:93 4:133 5:117 6:124 7:173 8:89 9:91 10:165 11:91 12:92 13:95 14:92 15:92 16:95 17:94 18:90 19:101 20:92 21:91 22:90 23:88 24:87 25:88 26:89 27:90 28:91 29:91 30:91 31:90 32:89 33:88 34:88 35:87 36:86 37:87 38:88 39:88 40:88 41:88 42:88 43:88 44:88 45:89 46:88 47:87 48:88 49:86 50:86 51:86 52:85 53:86 54:116 55:87 56:85 57:107 58:90 59:85 60:103 61:112 62:88 63:96 64:92 65:61 
1e-07 1:94 2:96 3:95 4:95 5:97 6:94 7:98 8:100 9:98 10:100 11:101 12:134 13:99 14:100 15:134 16:95 17:96 18:104 19:96 20:97 21:136 22:92 23:93 24:92 25:93 26:93 27:96 28:98 29:93 30:93 31:93 32:93 33:93 34:93 35:95 36:95 37:95 38:93 39:92 40:91 41:90 42:95 43:93 44:92 45:93 46:91 47:91 48:93 49:88 50:93 51:92 52:90 53:92 54:91 55:100 56:147 57:92 58:91 59:142 60:93 61:89 62:144 63:86 64:89 65:123 
1e-07 1:95 2:97 3:97 4:93 5:95 6:99 7:121 8:95 9:94 10:116 11:122 12:95 13:98 14:126 15:96 16:97 17:96 18:95 19:94 20:93 21:119 22:92 23:99 24:130 25:92 26:93 27:92 28:92 29:92 30:92 31:93 32:93 33:99 34:104 35:95 36:96 37:97 38:97 39:97 40:97 41:96 42:94 43:94 44:93 45:94 46:94 47:94 48:95 49:96 50:95 51:97 52:97 53:96 54:96 55:96 56:98 57:109 58:98 59:101 60:103 61:96 62:98 63:133 64:94 65:96 
1e-07 1:85 2:87 3:147 4:85 5:86 6:103 7:88 8:88 9:113 10:88 11:93 12:93 13:88 14:93 15:89 16:89 17:89 18:89 19:88 20:86 21:90 22:95 23:128 24:111 25:85 26:85 27:86 28:86 29:86 30:92 31:132 32:158 33:127 34:125 35:123 36:91 37:90 38:90 39:89 40:94 41:108 42:101 43:86 44:158 45:86 46:89 47:125 48:86 49:94 50:90 51:86 52:91 53:87 54:85 55:89 56:138 57:84 58:90 59:86 60:83 61:89 62:88 63:83 64:87 65:87 
1e-07 1:141 2:95 3:95 4:139 5:92 6:94 7:158 8:88 9:91 10:109 11:87 12:92 13:85 14:89 15:91 16:88 17:88 18:93 19:93 20:93 21:94 22:107 23:96 24:97 25:127 26:171 27:159 28:130 29:115 30:102 31:94 32:91 33:92 34:92 35:91 36:92 37:93 38:91 39:90 40:89 41:88 42:91 43:90 44:90 45:97 46:91 47:91 48:129 49:100 50:88 51:85 52:125 53:88 54:89 55:87 56:87 57:88 58:88 59:88 60:88 61:88 62:88 63:88 64:87 65:87 
1e-07 1:95 2:93 3:95 4:95 5:93 6:94 7:93 8:93 9:90 10:93 11:91 12:118 13:93 14:106 15:121 16:94 17:113 18:100 19:97 20:95 21:122 22:95 23:96 24:97 25:96 26:96 27:96 28:96 29:96 30:96 31:96 32:95 33:95 34:95 35:95 36:94 37:94 38:92 39:91 40:104 41:114 42:91 43:91 44:91 45:89 46:91 47:92 48:93 49:87 50:93 51:106 52:134 53:95 54:103 55:148 56:123 57:101 58:96 59:105 60:99 61:90 62:90 63:97 64:97 65:113 
1e-07 1:95 2:100 3:99 4:95 5:97 6:97 7:100 8:92 9:95 10:134 11:132 12:95 13:92 14:106 15:105 16:93 17:92 18:149 19:90 20:99 21:135 22:134 23:133 24:124 25:118 26:119 27:124 28:127 29:122 30:116 31:110 32:102 33:95 34:95 35:96 36:97 37:97 38:103 39:112 40:103 41:94 42:90 43:92 44:96 45:90 46:91 47:95 48:93 49:94 50:96 51:96 52:94 53:95 54:125 55:94 56:95 57:89 58:92 59:95 60:116 61:91 62:93 63:137 64:91 65:93 
1e-07 1:100 2:117 3:103 4:111 5:114 6:117 7:92 8:95 9:163 10:92 11:138 12:138 13:93 14:120 15:139 16:94 17:108 18:106 19:98 20:87 21:90 22:90 23:88 24:89 25:90 26:89 27:87 28:87 29:86 30:85 31:85 32:85 33:85 34:85 35:85 36:88 37:105 38:111 39:119 40:108 41:91 42:85 43:85 44:86 45:85 46:87 47:88 48:88 49:86 50:129 51:89 52:118 53:103 54:88 55:118 56:125 57:88 58:86 59:91 60:88 61:88 62:90 63:86 64:88 65:90 
1e-07 1:127 2:97 3:93 4:137 5:126 6:94 7:121 8:98 9:95 10:127 11:98 12:96 13:94 14:98 15:97 16:92 17:93 18:97 19:93 20:95 21:96 22:95 23:95 24:94 25:92 26:93 27:93 28:92 29:91 30:92 31:93 32:93 33:95 34:96 35:96 36:95 37:94 38:92 39:91 40:91 41:91 42:92 43:93 44:93 45:106 46:95 47:92 48:99 49:95 50:92 51:90 52:90 53:90 54:91 55:91 56:89 57:91 58:91 59:97 60:91 61:92 62:89 63:90 64:93 65:85 
1e-07 1:92 2:90 3:93 4:91 5:89 6:90 7:88 8:88 9:87 10:99 11:101 12:118 13:114 14:108 15:105 16:86 17:85 18:139 19:88 20:87 21:88 22:87 23:87 24:88 25:87 26:87 27:86 28:86 29:86 30:86 31:86 32:85 33:87 34:88 35:88 36:89 37:89 38:87 39:85 40:85 41:85 42:94 43:84 44:86 45:98 46:95 47:101 48:87 49:96 50:98 51:86 52:87 53:137 54:84 55:139 56:102 57:81 58:147 59:98 60:85 61:88 62:86 63:88 64:84 65:87 
1e-07 1:93 2:86 3:82 4:90 5:87 6:80 7:95 8:85 9:80 10:92 11:84 12:80 13:86 14:84 15:81 16:85 17:81 18:84 19:85 20:80 21:142 22:85 23:80 24:126 25:85 26:86 27:86 28:86 29:87 30:86 31:86 32:83 33:78 34:120 35:131 36:104 37:94 38:80 39:79 40:82 41:82 42:95 43:106 44:103 45:84 46:160 47:106 48:81 49:128 50:125 51:83 52:110 53:86 54:82 55:117 56:96 57:83 58:112 59:78 60:85 61:110 62:79 63:85 64:78 65:79 
1e-07 1:87 2:85 3:85 4:86 5:86 6:81 7:85 8:86 9:96 10:87 11:86 12:104 13:85 14:86 15:92 16:83 17:88 18:100 19:107 20:86 21:93 22:80 23:87 24:93 25:85 26:83 27:88 28:137 29:143 30:108 31:97 32:100 33:114 34:97 35:103 36:130 37:112 38:106 39:128 40:125 41:114 42:152 43:127 44:101 45:124 46:99 47:120 48:173 49:87 50:79 51:85 52:86 53:82 54:83 55:85 56:110 57:87 58:83 59:129 60:89 61:84 62:94 63:89 64:85 65:84 
1e-07 1:84 2:79 3:78 4:84 5:77 6:76 7:85 8:78 9:76 10:89 11:78 12:77 13:84 14:78 15:77 16:83 17:78 18:77 19:79 20:78 21:77 22:79 23:77 24:77 25:102 26:86 27:80 28:80 29:80 30:80 31:79 32:78 33:78 34:78 35:77 36:77 37:77 38:76 39:76 40:77 41:79 42:77 43:78 44:78 45:78 46:77 47:77 48:77 49:78 50:77 51:111 52:78 53:77 54:84 55:78 56:77 57:81 58:79 59:80 60:84 61:80 62:80 63:84 64:79 65:80 
1e-07 1:79 2:82 3:85 4:79 5:81 6:83 7:79 8:81 9:85 10:79 11:80 12:84 13:79 14:80 15:83 16:79 17:80 18:82 19:79 20:80 21:83 22:79 23:80 24:82 25:77 26:77 27:77 28:78 29:78 30:78 31:78 32:78 33:79 34:79 35:80 36:91 37:152 38:194 39:150 40:93 41:86 42:79 43:85 44:94 45:137 46:149 47:157 48:126 49:96 50:131 51:78 52:90 53:105 54:76 55:80 56:81 57:77 58:79 59:82 60:77 61:79 62:89 63:76 64:79 65:127 
1e-07 1:86 2:89 3:87 4:84 5:87 6:87 7:179 8:88 9:86 10:92 11:89 12:87 13:87 14:88 15:87 16:94 17:95 18:89 19:221 20:97 21:89 22:100 23:86 24:88 25:86 26:84 27:90 28:144 29:207 30:185 31:110 32:84 33:87 34:87 35:88 36:89 37:87 38:87 39:87 40:87 41:86 42:93 43:90 44:88 45:153 46:92 47:86 48:119 49:84 50:82 51:84 52:83 53:84 54:81 55:81 56:84 57:82 58:81 59:83 60:84 61:81 62:82 63:91 64:81 65:82 
1e-07 1:75 2:79 3:129 4:77 5:82 6:82 7:76 8:82 9:85 10:76 11:81 12:87 13:76 14:81 15:87 16:77 17:81 18:85 19:78 20:83 21:103 22:79 23:91 24:146 25:76 26:76 27:76 28:77 29:77 30:77 31:77 32:80 33:96 34:143 35:153 36:132 37:126 38:133 39:132 40:124 41:110 42:78 43:79 44:77 45:77 46:80 47:80 48:76 49:80 50:78 51:76 52:82 53:113 54:77 55:130 56:105 57:75 58:84 59:79 60:75 61:77 62:77 63:75 64:79 65:143 
1e-07 1:143 2:81 3:82 4:120 5:82 6:81 7:83 8:80 9:81 10:88 11:100 12:82 13:135 14:107 15:87 16:95 17:84 18:84 19:88 20:86 21:84 22:87 23:86 24:84 25:93 26:81 27:82 28:86 29:86 30:86 31:87 32:86 33:85 34:84 35:84 36:84 37:84 38:83 39:82 40:82 41:82 42:83 43:84 44:84 45:90 46:84 47:83 48:141 49:85 50:82 51:100 52:82 53:82 54:81 55:81 56:80 57:81 58:79 59:80 60:111 61:78 62:79 63:128 64:80 65:58 
1e-07 1:79 2:78 3:81 4:77 5:78 6:126 7:77 8:79 9:149 10:76 11:77 12:98 13:76 14:89 15:78 16:76 17:84 18:86 19:74 20:74 21:101 22:74 23:75 24:76 25:74 26:74 27:74 28:73 29:74 30:73 31:74 32:74 33:75 34:75 35:74 36:74 37:74 38:76 39:78 40:81 41:87 42:82 43:83 44:87 45:140 46:110 47:138 48:74 49:78 50:78 51:72 52:88 53:75 54:72 55:83 56:78 57:73 58:75 59:92 60:73 61:85 62:169 63:73 64:75 65:83 
