svm_type c_svc
kernel_type rbf
gamma 10
nr_class 2
total_sv 110
rho 0.0363645
label 1 -1
nr_sv 53 57
SV
1.0361328125 1:95 2:68 3:68 4:73 5:68 6:68 7:78 8:71 9:70 10:121 11:119 12:106 13:84 14:70 15:69 16:68 17:101 18:83 19:70 20:70 21:69 22:68 23:106 24:79 25:70 
1.0361328125 1:71 2:68 3:93 4:69 5:70 6:68 7:68 8:70 9:69 10:68 11:69 12:69 13:70 14:69 15:68 16:68 17:72 18:72 19:72 20:67 21:69 22:69 23:95 24:69 25:68 
1.0361328125 1:96 2:104 3:106 4:111 5:116 6:123 7:92 8:88 9:88 10:103 11:115 12:101 13:89 14:86 15:79 16:75 17:109 18:99 19:95 20:110 21:76 22:74 23:82 24:70 25:74 
1.0361328125 1:66 2:66 3:66 4:66 5:66 6:67 7:66 8:66 9:67 10:66 11:66 12:66 13:66 14:67 15:68 16:68 17:66 18:66 19:66 20:66 21:66 22:66 23:66 24:66 25:68 
1.0361328125 1:75 2:83 3:83 4:74 5:91 6:107 7:78 8:105 9:125 10:72 11:75 12:90 13:98 14:102 15:101 16:109 17:113 18:100 19:97 20:98 21:111 22:124 23:79 24:89 25:107 
1.0361328125 1:92 2:79 3:68 4:114 5:73 6:68 7:81 8:72 9:68 10:119 11:104 12:72 13:69 14:68 15:68 16:69 17:69 18:69 19:68 20:73 21:68 22:68 23:89 24:68 25:70 
1.0361328125 1:73 2:99 3:84 4:121 5:83 6:75 7:86 8:74 9:74 10:95 11:77 12:72 13:73 14:74 15:74 16:76 17:72 18:73 19:74 20:72 21:73 22:83 23:75 24:73 25:85 
1.036089098396852 1:70 2:70 3:70 4:70 5:70 6:70 7:70 8:70 9:70 10:70 11:70 12:70 13:70 14:70 15:70 16:70 17:70 18:70 19:70 20:70 21:70 22:70 23:70 24:70 25:70 
1.0361328125 1:73 2:74 3:74 4:73 5:72 6:73 7:72 8:70 9:70 10:72 11:72 12:72 13:70 14:70 15:71 16:72 17:72 18:70 19:70 20:72 21:70 22:71 23:72 24:70 25:72 
1.0361328125 1:66 2:80 3:99 4:65 5:89 6:106 7:87 8:95 9:86 10:67 11:65 12:75 13:86 14:76 15:78 16:80 17:67 18:70 19:68 20:66 21:66 22:65 23:68 24:66 25:66 
1.0361328125 1:124 2:131 3:89 4:92 5:137 6:95 7:87 8:139 9:127 10:90 11:74 12:87 13:135 14:128 15:111 16:85 17:84 18:123 19:128 20:72 21:110 22:124 23:74 24:102 25:126 
1.0361328125 1:67 2:74 3:69 4:69 5:68 6:68 7:74 8:71 9:66 10:67 11:75 12:90 13:84 14:70 15:67 16:67 17:110 18:102 19:81 20:97 21:106 22:110 23:107 24:105 25:78 
1.0361328125 1:70 2:70 3:70 4:69 5:70 6:70 7:70 8:70 9:70 10:70 11:70 12:70 13:70 14:70 15:70 16:70 17:71 18:71 19:70 20:72 21:71 22:75 23:70 24:79 25:107 
1.0361328125 1:66 2:66 3:68 4:66 5:66 6:68 7:66 8:66 9:68 10:66 11:66 12:66 13:66 14:68 15:68 16:68 17:66 18:66 19:66 20:66 21:67 22:67 23:66 24:68 25:74 
1.0361328125 1:72 2:66 3:66 4:66 5:67 6:66 7:69 8:69 9:68 10:69 11:70 12:70 13:69 14:68 15:67 16:66 17:70 18:68 19:68 20:70 21:69 22:69 23:70 24:68 25:68 
1.0361328125 1:78 2:73 3:74 4:85 5:74 6:74 7:96 8:79 9:75 10:102 11:99 12:95 13:81 14:74 15:74 16:74 17:75 18:75 19:74 20:72 21:74 22:74 23:72 24:74 25:74 
1.0361328125 1:70 2:90 3:111 4:68 5:76 6:119 7:70 8:87 9:126 10:70 11:70 12:71 13:89 14:113 15:90 16:71 17:74 18:78 19:81 20:70 21:71 22:71 23:70 24:70 25:69 
1.0361328125 1:73 2:77 3:76 4:99 5:102 6:108 7:93 8:93 9:100 10:72 11:74 12:71 13:64 14:75 15:117 16:116 17:63 18:65 19:73 20:74 21:83 22:118 23:73 24:101 25:138 
1.0361328125 1:70 2:70 3:70 4:70 5:70 6:70 7:70 8:70 9:69 10:69 11:70 12:70 13:70 14:69 15:70 16:70 17:70 18:70 19:69 20:69 21:70 22:70 23:68 24:70 25:70 
1.0361328125 1:74 2:103 3:84 4:75 5:95 6:96 7:75 8:87 9:101 10:93 11:85 12:78 13:86 14:90 15:99 16:102 17:82 18:86 19:89 20:82 21:120 22:120 23:84 24:85 25:110 
1.0361328125 1:69 2:107 3:71 4:69 5:119 6:72 7:93 8:123 9:82 10:71 11:70 12:108 13:117 14:76 15:70 16:69 17:122 18:102 19:73 20:100 21:87 22:70 23:117 24:76 25:68 
1.0361328125 1:74 2:71 3:72 4:72 5:70 6:70 7:72 8:70 9:70 10:72 11:72 12:72 13:70 14:70 15:70 16:70 17:72 18:70 19:70 20:72 21:71 22:71 23:72 24:70 25:72 
1.0361328125 1:109 2:78 3:76 4:89 5:75 6:76 7:91 8:74 9:74 10:86 11:114 12:114 13:90 14:76 15:76 16:76 17:105 18:111 19:90 20:73 21:97 22:74 23:74 24:76 25:74 
1.0361328125 1:66 2:66 3:66 4:66 5:66 6:66 7:66 8:66 9:66 10:66 11:66 12:66 13:66 14:66 15:66 16:66 17:66 18:66 19:66 20:67 21:67 22:66 23:66 24:66 25:66 
1.0361328125 1:66 2:67 3:68 4:66 5:67 6:68 7:66 8:67 9:68 10:66 11:66 12:66 13:67 14:68 15:66 16:67 17:66 18:67 19:68 20:66 21:67 22:68 23:66 24:67 25:66 
1.0361328125 1:69 2:68 3:68 4:68 5:68 6:68 7:68 8:68 9:68 10:69 11:68 12:68 13:68 14:68 15:68 16:68 17:70 18:70 19:70 20:70 21:70 22:70 23:70 24:70 25:69 
1.0361328125 1:66 2:66 3:70 4:66 5:67 6:68 7:66 8:67 9:69 10:66 11:67 12:68 13:68 14:69 15:70 16:70 17:68 18:68 19:69 20:67 21:68 22:70 23:66 24:68 25:68 
1.0361328125 1:131 2:89 3:74 4:123 5:111 6:77 7:110 8:106 9:81 10:135 11:128 12:111 13:85 14:75 15:73 16:73 17:105 18:78 19:74 20:135 21:99 22:98 23:102 24:126 25:117 
1.0361328125 1:68 2:69 3:119 4:69 5:68 6:110 7:68 8:67 9:77 10:68 11:69 12:69 13:67 14:82 15:118 16:107 17:68 18:68 19:88 20:68 21:70 22:123 23:68 24:73 25:92 
1.0361328125 1:68 2:66 3:68 4:68 5:68 6:67 7:68 8:68 9:68 10:68 11:68 12:68 13:68 14:68 15:67 16:67 17:68 18:68 19:68 20:68 21:68 22:67 23:68 24:68 25:67 
1.0361328125 1:68 2:68 3:68 4:68 5:68 6:68 7:68 8:68 9:68 10:66 11:68 12:68 13:68 14:68 15:68 16:68 17:68 18:70 19:69 20:69 21:68 22:68 23:70 24:68 25:68 
1.037109375 1:74 2:82 3:107 4:91 5:77 6:85 7:106 8:80 9:72 10:69 11:103 12:117 13:101 14:91 15:108 16:118 17:125 18:107 19:99 20:107 21:84 22:117 23:67 24:80 25:104 
1.037109375 1:75 2:73 3:85 4:74 5:73 6:90 7:70 8:75 9:91 10:72 11:72 12:73 13:86 14:96 15:84 16:75 17:81 18:98 19:96 20:79 21:103 22:75 23:77 24:91 25:76 
1.037109375 1:66 2:68 3:68 4:68 5:70 6:68 7:68 8:68 9:68 10:70 11:69 12:68 13:68 14:68 15:68 16:68 17:67 18:67 19:67 20:64 21:65 22:68 23:70 24:79 25:73 
1.037109375 1:70 2:77 3:112 4:95 5:80 6:91 7:117 8:101 9:91 10:64 11:105 12:125 13:107 14:99 15:121 16:125 17:117 18:84 19:84 20:105 21:80 22:112 23:69 24:96 25:79 
1.037109375 1:68 2:68 3:68 4:68 5:68 6:68 7:69 8:68 9:68 10:68 11:68 12:69 13:68 14:68 15:68 16:68 17:69 18:68 19:68 20:70 21:68 22:68 23:70 24:68 25:68 
1.037109375 1:71 2:69 3:73 4:71 5:70 6:78 7:88 8:90 9:93 10:68 11:81 12:111 13:104 14:93 15:83 16:77 17:103 18:85 19:73 20:74 21:78 22:69 23:71 24:78 25:77 
1.037109375 1:74 2:118 3:75 4:76 5:117 6:93 7:110 8:114 9:108 10:93 11:98 12:100 13:99 14:97 15:95 16:94 17:91 18:101 19:100 20:76 21:97 22:79 23:81 24:92 25:90 
1.037109375 1:92 2:82 3:76 4:113 5:90 6:77 7:108 8:101 9:77 10:82 11:75 12:97 13:108 14:83 15:75 16:79 17:89 18:109 19:89 20:69 21:112 22:77 23:89 24:112 25:80 
1.037109375 1:66 2:85 3:73 4:67 5:81 6:87 7:68 8:71 9:72 10:66 11:68 12:68 13:69 14:68 15:67 16:74 17:68 18:68 19:69 20:67 21:68 22:69 23:66 24:68 25:68 
1.037109375 1:102 2:107 3:70 4:87 5:130 6:101 7:80 8:100 9:123 10:72 11:72 12:72 13:75 14:85 15:107 16:124 17:72 18:71 19:71 20:70 21:71 22:72 23:70 24:70 25:71 
1.037109375 1:70 2:72 3:74 4:72 5:72 6:73 7:72 8:72 9:72 10:72 11:72 12:72 13:72 14:72 15:73 16:74 17:72 18:72 19:72 20:72 21:72 22:73 23:77 24:71 25:73 
1.037109375 1:75 2:116 3:98 4:79 5:85 6:80 7:70 8:69 9:70 10:71 11:71 12:71 13:70 14:73 15:78 16:86 17:88 18:90 19:93 20:81 21:104 22:83 23:69 24:85 25:68 
1.037109375 1:68 2:70 3:68 4:68 5:70 6:69 7:68 8:70 9:70 10:68 11:68 12:68 13:70 14:70 15:69 16:68 17:69 18:70 19:70 20:69 21:69 22:68 23:68 24:69 25:67 
1.036091692624959 1:70 2:70 3:70 4:70 5:70 6:70 7:70 8:70 9:70 10:70 11:70 12:70 13:70 14:70 15:70 16:70 17:70 18:70 19:70 20:70 21:70 22:70 23:70 24:69 25:70 
1.037109375 1:76 2:100 3:119 4:86 5:99 6:119 7:70 8:86 9:95 10:81 11:84 12:95 13:100 14:98 15:100 16:110 17:107 18:113 19:112 20:76 21:97 22:80 23:74 24:103 25:84 
1.037109375 1:72 2:108 3:93 4:101 5:128 6:111 7:115 8:119 9:93 10:90 11:77 12:92 13:103 14:75 15:65 16:68 17:95 18:103 19:74 20:75 21:114 22:65 23:69 24:119 25:70 
1.037109375 1:68 2:67 3:118 4:69 5:69 6:107 7:68 8:68 9:75 10:68 11:69 12:68 13:67 14:77 15:113 16:112 17:69 18:67 19:82 20:68 21:68 22:123 23:68 24:70 25:92 
1.037109375 1:83 2:75 3:74 4:66 5:66 6:66 7:69 8:68 9:68 10:66 11:67 12:68 13:68 14:68 15:68 16:68 17:68 18:67 19:68 20:82 21:66 22:68 23:84 24:75 25:67 
1.037109375 1:69 2:68 3:68 4:68 5:68 6:68 7:68 8:68 9:68 10:80 11:68 12:68 13:68 14:68 15:68 16:68 17:68 18:68 19:68 20:66 21:68 22:68 23:66 24:68 25:68 
1.037109375 1:71 2:75 3:77 4:72 5:71 6:71 7:88 8:83 9:74 10:66 11:78 12:92 13:87 14:89 15:93 16:81 17:109 18:89 19:80 20:93 21:92 22:92 23:68 24:104 25:103 
1.037109375 1:90 2:68 3:69 4:69 5:68 6:68 7:68 8:69 9:70 10:72 11:68 12:68 13:68 14:70 15:71 16:71 17:68 18:69 19:69 20:68 21:70 22:70 23:68 24:69 25:104 
1.037109375 1:71 2:74 3:71 4:74 5:73 6:74 7:72 8:72 9:72 10:72 11:72 12:72 13:72 14:72 15:72 16:72 17:71 18:72 19:72 20:72 21:72 22:72 23:77 24:73 25:72 
-0.962890625 1:238 2:238 3:238 4:238 5:238 6:238 7:238 8:238 9:238 10:238 11:238 12:238 13:238 14:238 15:238 16:238 17:238 18:238 19:238 20:238 21:238 22:238 23:238 24:238 25:238 
-0.962890625 1:90 2:101 3:105 4:96 5:103 6:109 7:99 8:101 9:111 10:90 11:91 12:96 13:102 14:112 15:116 16:113 17:98 18:104 19:113 20:95 21:106 22:115 23:81 24:105 25:109 
-0.962890625 1:174 2:174 3:176 4:169 5:175 6:179 7:172 8:173 9:176 10:171 11:172 12:172 13:173 14:176 15:177 16:174 17:172 18:175 19:176 20:170 21:175 22:175 23:167 24:176 25:176 
-0.962890625 1:210 2:54 3:59 4:200 5:54 6:57 7:120 8:55 9:53 10:206 11:194 12:96 13:55 14:54 15:57 16:60 17:70 18:55 19:53 20:160 21:57 22:56 23:202 24:55 25:59 
-0.9638643500043145 1:38 2:9 3:13 4:129 5:11 6:15 7:23 8:4 9:9 10:61 11:52 12:11 13:10 14:8 15:8 16:13 17:6 18:9 19:11 20:8 21:6 22:12 23:3 24:4 25:36 
-0.962890625 1:165 2:165 3:165 4:165 5:165 6:165 7:164 8:163 9:163 10:163 11:162 12:161 13:161 14:160 15:160 16:160 17:158 18:158 19:158 20:155 21:155 22:156 23:153 24:152 25:156 
-0.9638612690014963 1:12 2:21 3:14 4:15 5:19 6:17 7:17 8:19 9:18 10:12 11:13 12:17 13:22 14:19 15:16 16:13 17:17 18:18 19:19 20:14 21:18 22:16 23:11 24:20 25:15 
-0.9638612910949681 1:124 2:121 3:106 4:121 5:124 6:118 7:120 8:122 9:115 10:120 11:120 12:120 13:119 14:116 15:114 16:110 17:120 18:121 19:121 20:121 21:121 22:119 23:121 24:122 25:120 
-0.9638613353583818 1:22 2:17 3:4 4:23 5:15 6:6 7:20 8:15 9:11 10:18 11:20 12:21 13:17 14:9 15:5 16:4 17:20 18:13 19:7 20:21 21:16 22:5 23:20 24:17 25:3 
-0.9638613353583818 1:143 2:135 3:127 4:144 5:137 6:131 7:140 8:139 9:134 10:147 11:142 12:141 13:137 14:136 15:133 16:129 17:141 18:140 19:136 20:146 21:139 22:136 23:148 24:142 25:134 
-0.9638613353583818 1:13 2:25 3:32 4:20 5:24 6:27 7:23 8:20 9:24 10:26 11:28 12:29 13:25 14:22 15:20 16:20 17:25 18:21 19:25 20:8 21:20 22:18 23:12 24:6 25:16 
-0.9638643500043145 1:255 2:254 3:254 4:255 5:254 6:254 7:254 8:254 9:254 10:254 11:254 12:254 13:255 14:255 15:255 16:255 17:254 18:255 19:255 20:255 21:255 22:254 23:255 24:252 25:252 
-0.9638643500043145 1:206 2:201 3:247 4:205 5:199 6:252 7:201 8:195 9:208 10:206 11:203 12:199 13:192 14:221 15:250 16:245 17:199 18:192 19:234 20:202 21:193 22:247 23:205 24:198 25:240 
-0.9638639071789968 1:120 2:132 3:143 4:126 5:132 6:141 7:128 8:132 9:136 10:117 11:122 12:127 13:132 14:136 15:140 16:141 17:127 18:131 19:136 20:122 21:131 22:140 23:113 24:130 25:142 
-0.9638639955830406 1:255 2:255 3:255 4:255 5:255 6:255 7:255 8:255 9:255 10:255 11:255 12:255 13:255 14:255 15:255 16:255 17:255 18:255 19:255 20:255 21:255 22:255 23:255 24:255 25:255 
-0.9638643500043145 1:9 2:6 3:65 4:71 5:171 6:218 7:213 8:216 9:217 10:132 11:150 12:203 13:214 14:218 15:217 16:211 17:178 18:160 19:181 20:131 21:138 22:155 23:110 24:140 25:143 
-0.9638643500043145 1:115 2:111 3:108 4:113 5:111 6:108 7:110 8:109 9:108 10:113 11:112 12:111 13:109 14:108 15:106 16:106 17:111 18:110 19:109 20:114 21:110 22:107 23:116 24:111 25:107 
-0.9638643500043145 1:109 2:105 3:118 4:106 5:109 6:111 7:113 8:115 9:115 10:112 11:113 12:115 13:118 14:122 15:122 16:117 17:114 18:116 19:115 20:119 21:119 22:108 23:134 24:114 25:108 
-0.9638643500043145 1:80 2:138 3:145 4:102 5:137 6:145 7:127 8:139 9:142 10:137 11:96 12:126 13:140 14:143 15:146 16:147 17:129 18:140 19:142 20:96 21:136 22:146 23:140 24:136 25:144 
-0.9638612910949681 1:92 2:105 3:101 4:97 5:108 6:105 7:101 8:109 9:113 10:93 11:97 12:100 13:109 14:115 15:109 16:107 17:99 18:109 19:114 20:91 21:104 22:108 23:90 24:103 25:106 
-0.9638613353583818 1:224 2:225 3:226 4:225 5:225 6:226 7:226 8:226 9:225 10:225 11:227 12:227 13:226 14:226 15:226 16:226 17:228 18:227 19:227 20:229 21:228 22:227 23:230 24:229 25:228 
-0.9638639955830406 1:11 2:10 3:9 4:10 5:10 6:11 7:10 8:9 9:10 10:9 11:10 12:11 13:9 14:9 15:10 16:9 17:10 18:8 19:8 20:10 21:10 22:11 23:10 24:10 25:7 
-0.9638643500043145 1:216 2:216 3:216 4:216 5:216 6:215 7:216 8:216 9:215 10:216 11:216 12:216 13:216 14:216 15:216 16:216 17:216 18:216 19:217 20:216 21:216 22:218 23:217 24:217 25:218 
-0.9638643500043145 1:117 2:208 3:208 4:208 5:210 6:208 7:205 8:209 9:209 10:126 11:205 12:206 13:203 14:202 15:203 16:210 17:207 18:203 19:201 20:198 21:194 22:199 23:131 24:194 25:194 
-0.9638643500043145 1:217 2:217 3:217 4:218 5:218 6:218 7:218 8:219 9:218 10:219 11:219 12:219 13:219 14:218 15:218 16:218 17:218 18:218 19:218 20:218 21:218 22:219 23:218 24:218 25:219 
-0.9638643500043145 1:178 2:198 3:186 4:176 5:193 6:186 7:187 8:182 9:183 10:197 11:186 12:177 13:176 14:175 15:182 16:182 17:191 18:188 19:187 20:175 21:187 22:178 23:193 24:210 25:200 
-0.9638643500043145 1:157 2:155 3:153 4:156 5:155 6:155 7:156 8:155 9:155 10:157 11:156 12:156 13:155 14:155 15:154 16:154 17:156 18:155 19:155 20:156 21:155 22:154 23:157 24:155 25:154 
-0.9638671875 1:69 2:82 3:93 4:75 5:77 6:82 7:77 8:74 9:70 10:72 11:70 12:80 13:82 14:78 15:88 16:92 17:83 18:87 19:82 20:86 21:84 22:87 23:86 24:84 25:94 
-0.9638671875 1:147 2:178 3:197 4:152 5:173 6:190 7:161 8:171 9:180 10:133 11:151 12:158 13:168 14:178 15:186 16:194 17:156 18:166 19:177 20:143 21:168 22:185 23:160 24:167 25:192 
-0.9638671875 1:207 2:199 3:205 4:197 5:205 6:211 7:208 8:208 9:203 10:210 11:205 12:202 13:200 14:201 15:201 16:201 17:200 18:205 19:208 20:207 21:209 22:206 23:210 24:202 25:200 
-0.9638671875 1:255 2:255 3:255 4:255 5:255 6:255 7:255 8:255 9:255 10:255 11:255 12:255 13:255 14:254 15:254 16:254 17:255 18:255 19:254 20:255 21:255 22:254 23:255 24:255 25:254 
-0.9638671875 1:122 2:120 3:134 4:121 5:118 6:156 7:123 8:123 9:124 10:121 11:122 12:122 13:122 14:123 15:119 16:89 17:118 18:119 19:120 20:114 21:114 22:108 23:122 24:115 25:90 
-0.9638671875 1:211 2:209 3:208 4:220 5:226 6:225 7:225 8:230 9:226 10:212 11:216 12:220 13:221 14:223 15:224 16:218 17:219 18:220 19:221 20:211 21:214 22:213 23:200 24:213 25:232 
-0.9638671875 1:252 2:251 3:250 4:252 5:251 6:252 7:251 8:252 9:252 10:252 11:253 12:253 13:254 14:254 15:255 16:254 17:254 18:254 19:254 20:254 21:255 22:248 23:254 24:247 25:236 
-0.9638671875 1:169 2:167 3:167 4:167 5:166 6:165 7:167 8:167 9:165 10:169 11:171 12:171 13:168 14:168 15:166 16:164 17:169 18:169 19:168 20:170 21:171 22:166 23:169 24:171 25:166 
-0.9638671875 1:185 2:191 3:224 4:184 5:194 6:222 7:190 8:199 9:215 10:211 11:199 12:195 13:201 14:214 15:218 16:220 17:199 18:203 19:214 20:202 21:205 22:216 23:213 24:202 25:216 
-0.9638671875 1:220 2:218 3:216 4:220 5:218 6:216 7:219 8:217 9:217 10:220 11:218 12:219 13:216 14:216 15:216 16:216 17:218 18:217 19:216 20:219 21:217 22:216 23:219 24:217 25:215 
-0.9638671875 1:120 2:106 3:91 4:119 5:113 6:80 7:127 8:104 9:99 10:144 11:119 12:130 13:115 14:93 15:84 16:72 17:132 18:128 19:100 20:139 21:131 22:86 23:155 24:136 25:82 
-0.9638671875 1:193 2:226 3:223 4:195 5:223 6:216 7:210 8:221 9:224 10:185 11:194 12:212 13:222 14:224 15:214 16:218 17:215 18:222 19:222 20:201 21:218 22:215 23:199 24:216 25:215 
-0.9638671875 1:21 2:221 3:196 4:31 5:225 6:204 7:214 8:219 9:207 10:28 11:120 12:220 13:214 14:202 15:189 16:180 17:213 18:201 19:189 20:218 21:186 22:175 23:185 24:183 25:162 
-0.9638671875 1:205 2:202 3:200 4:202 5:203 6:199 7:205 8:204 9:201 10:203 11:202 12:200 13:201 14:201 15:199 16:190 17:204 18:203 19:198 20:199 21:199 22:190 23:199 24:195 25:178 
-0.9638671875 1:173 2:107 3:82 4:152 5:104 6:85 7:132 8:103 9:90 10:166 11:156 12:136 13:105 14:89 15:86 16:84 17:138 18:110 19:90 20:145 21:101 22:92 23:157 24:90 25:92 
-0.9638671875 1:150 2:148 3:148 4:148 5:149 6:148 7:148 8:149 9:149 10:147 11:149 12:147 13:149 14:149 15:148 16:148 17:149 18:150 19:149 20:149 21:150 22:149 23:149 24:150 25:149 
-0.9638671875 1:115 2:53 3:31 4:59 5:42 6:32 7:47 8:40 9:34 10:53 11:49 12:39 13:39 14:33 15:25 16:39 17:33 18:27 19:26 20:41 21:49 22:101 23:42 24:108 25:80 
-0.9638671875 1:234 2:241 3:236 4:239 5:241 6:241 7:242 8:242 9:243 10:244 11:244 12:243 13:243 14:244 15:246 16:245 17:243 18:242 19:242 20:246 21:242 22:243 23:236 24:240 25:239 
-0.9638671875 1:159 2:151 3:146 4:159 5:155 6:151 7:158 8:156 9:155 10:164 11:161 12:159 13:157 14:157 15:155 16:153 17:159 18:158 19:157 20:161 21:159 22:156 23:162 24:158 25:156 
-0.9638671875 1:86 2:77 3:78 4:77 5:77 6:78 7:78 8:75 9:76 10:84 11:77 12:75 13:77 14:79 15:79 16:77 17:73 18:80 19:82 20:77 21:81 22:76 23:76 24:81 25:78 
-0.9638671875 1:100 2:98 3:94 4:100 5:97 6:96 7:101 8:100 9:98 10:101 11:101 12:101 13:101 14:98 15:97 16:96 17:101 18:101 19:100 20:102 21:101 22:96 23:104 24:100 25:91 
-0.9638671875 1:187 2:186 3:185 4:185 5:186 6:186 7:186 8:188 9:187 10:182 11:184 12:185 13:187 14:186 15:186 16:187 17:184 18:184 19:184 20:182 21:185 22:188 23:178 24:184 25:184 
-0.9638671875 1:217 2:216 3:216 4:217 5:217 6:217 7:217 8:217 9:217 10:217 11:217 12:217 13:217 14:217 15:217 16:216 17:218 18:217 19:217 20:217 21:217 22:216 23:218 24:218 25:217 
-0.9638671875 1:149 2:149 3:147 4:148 5:148 6:147 7:148 8:148 9:147 10:149 11:149 12:149 13:147 14:148 15:148 16:147 17:149 18:147 19:148 20:148 21:147 22:147 23:148 24:148 25:148 
-0.9638671875 1:91 2:99 3:108 4:90 5:102 6:106 7:98 8:102 9:103 10:91 11:93 12:97 13:102 14:105 15:105 16:105 17:98 18:102 19:109 20:98 21:102 22:105 23:93 24:103 25:105 
-0.9638671875 1:131 2:131 3:130 4:130 5:131 6:130 7:130 8:130 9:130 10:129 11:129 12:129 13:130 14:130 15:130 16:130 17:129 18:130 19:131 20:130 21:130 22:130 23:130 24:130 25:130 
-0.9638671875 1:186 2:192 3:173 4:197 5:199 6:190 7:200 8:193 9:190 10:196 11:198 12:196 13:192 14:179 15:172 16:170 17:191 18:186 19:180 20:186 21:182 22:176 23:193 24:185 25:173 
-0.9638671875 1:81 2:81 3:83 4:81 5:83 6:83 7:84 8:84 9:84 10:85 11:84 12:84 13:84 14:84 15:85 16:84 17:84 18:85 19:86 20:86 21:83 22:83 23:85 24:84 25:82 
-0.9638671875 1:216 2:217 3:212 4:214 5:215 6:215 7:214 8:215 9:215 10:212 11:212 12:212 13:214 14:214 15:213 16:213 17:212 18:213 19:214 20:210 21:214 22:213 23:209 24:214 25:212 
-0.9638671875 1:245 2:231 3:246 4:245 5:225 6:243 7:239 8:234 9:231 10:218 11:241 12:243 13:242 14:238 15:233 16:242 17:242 18:239 19:244 20:228 21:239 22:236 23:222 24:231 25:236 
